digraph Tree {
node [shape=box, style="rounded", color="black", fontname=helvetica] ;
edge [fontname=helvetica] ;
0 [label="PE <= 18.8\ngini = 0.5\nsamples = 1916\nvalue = [1959, 1064]"] ;
1 [label="ND/market cap <= 0.1\ngini = 0.5\nsamples = 1172\nvalue = [1157, 711]"] ;
0 -> 1 [labeldistance=2.5, labelangle=45, headlabel="True"] ;
2 [label="ST momentum <= -0.5\ngini = 0.5\nsamples = 343\nvalue = [308, 241]"] ;
1 -> 2 ;
3 [label="gini = 0.0\nsamples = 2\nvalue = [0, 4]"] ;
2 -> 3 ;
4 [label="ND/market cap <= 0.1\ngini = 0.5\nsamples = 341\nvalue = [308, 237]"] ;
2 -> 4 ;
5 [label="xSales <= 3.1\ngini = 0.5\nsamples = 316\nvalue = [295, 209]"] ;
4 -> 5 ;
6 [label="ND/market cap <= 0.1\ngini = 0.5\nsamples = 303\nvalue = [289, 192]"] ;
5 -> 6 ;
7 [label="market cap vs peak <= -0.3\ngini = 0.5\nsamples = 297\nvalue = [278, 192]"] ;
6 -> 7 ;
8 [label="net income vs peak <= -0.0\ngini = 0.5\nsamples = 56\nvalue = [44, 48]"] ;
7 -> 8 ;
9 [label="xSales <= 0.7\ngini = 0.5\nsamples = 50\nvalue = [43, 35]"] ;
8 -> 9 ;
10 [label="outperf vs index 1m <= 0.2\ngini = 0.5\nsamples = 42\nvalue = [39, 24]"] ;
9 -> 10 ;
11 [label="PE vs peak <= -1.9\ngini = 0.4\nsamples = 40\nvalue = [39, 20]"] ;
10 -> 11 ;
12 [label="xEbit <= 20.2\ngini = 0.2\nsamples = 12\nvalue = [17, 2]"] ;
11 -> 12 ;
13 [label="gini = 0.0\nsamples = 9\nvalue = [16, 0]"] ;
12 -> 13 ;
14 [label="Index st momentum <= -0.1\ngini = 0.4\nsamples = 3\nvalue = [1, 2]"] ;
12 -> 14 ;
15 [label="gini = 0.0\nsamples = 1\nvalue = [1, 0]"] ;
14 -> 15 ;
16 [label="gini = 0.0\nsamples = 2\nvalue = [0, 2]"] ;
14 -> 16 ;
17 [label="ST momentum <= -0.3\ngini = 0.5\nsamples = 28\nvalue = [22, 18]"] ;
11 -> 17 ;
18 [label="LT momentum <= -0.2\ngini = 0.4\nsamples = 8\nvalue = [10, 3]"] ;
17 -> 18 ;
19 [label="gini = 0.0\nsamples = 1\nvalue = [0, 2]"] ;
18 -> 19 ;
20 [label="xSales vs peak <= -0.8\ngini = 0.2\nsamples = 7\nvalue = [10, 1]"] ;
18 -> 20 ;
21 [label="gini = 0.0\nsamples = 1\nvalue = [0, 1]"] ;
20 -> 21 ;
22 [label="gini = 0.0\nsamples = 6\nvalue = [10, 0]"] ;
20 -> 22 ;
23 [label="outperf vs index 1m <= 0.0\ngini = 0.5\nsamples = 20\nvalue = [12, 15]"] ;
17 -> 23 ;
24 [label="xEbit <= -10.2\ngini = 0.3\nsamples = 13\nvalue = [4, 14]"] ;
23 -> 24 ;
25 [label="PE vs peak <= -1.5\ngini = 0.4\nsamples = 3\nvalue = [2, 1]"] ;
24 -> 25 ;
26 [label="gini = 0.0\nsamples = 1\nvalue = [1, 0]"] ;
25 -> 26 ;
27 [label="xSales vs peak <= -0.0\ngini = 0.5\nsamples = 2\nvalue = [1, 1]"] ;
25 -> 27 ;
28 [label="gini = 0.0\nsamples = 1\nvalue = [1, 0]"] ;
27 -> 28 ;
29 [label="gini = 0.0\nsamples = 1\nvalue = [0, 1]"] ;
27 -> 29 ;
30 [label="xEbit <= 4.0\ngini = 0.2\nsamples = 10\nvalue = [2, 13]"] ;
24 -> 30 ;
31 [label="ebit vs peak <= -0.2\ngini = 0.1\nsamples = 8\nvalue = [1, 12]"] ;
30 -> 31 ;
32 [label="gini = 0.0\nsamples = 5\nvalue = [0, 10]"] ;
31 -> 32 ;
33 [label="LT momentum <= 0.5\ngini = 0.4\nsamples = 3\nvalue = [1, 2]"] ;
31 -> 33 ;
34 [label="gini = 0.0\nsamples = 1\nvalue = [1, 0]"] ;
33 -> 34 ;
35 [label="gini = 0.0\nsamples = 2\nvalue = [0, 2]"] ;
33 -> 35 ;
36 [label="PE vs peak <= -0.0\ngini = 0.5\nsamples = 2\nvalue = [1, 1]"] ;
30 -> 36 ;
37 [label="gini = 0.0\nsamples = 1\nvalue = [1, 0]"] ;
36 -> 37 ;
38 [label="gini = 0.0\nsamples = 1\nvalue = [0, 1]"] ;
36 -> 38 ;
39 [label="ND/market cap <= -0.4\ngini = 0.2\nsamples = 7\nvalue = [8, 1]"] ;
23 -> 39 ;
40 [label="gini = 0.0\nsamples = 5\nvalue = [7, 0]"] ;
39 -> 40 ;
41 [label="outperf vs index 1m <= 0.1\ngini = 0.5\nsamples = 2\nvalue = [1, 1]"] ;
39 -> 41 ;
42 [label="gini = 0.0\nsamples = 1\nvalue = [0, 1]"] ;
41 -> 42 ;
43 [label="gini = 0.0\nsamples = 1\nvalue = [1, 0]"] ;
41 -> 43 ;
44 [label="gini = 0.0\nsamples = 2\nvalue = [0, 4]"] ;
10 -> 44 ;
45 [label="ST momentum <= -0.1\ngini = 0.4\nsamples = 8\nvalue = [4, 11]"] ;
9 -> 45 ;
46 [label="gini = 0.0\nsamples = 4\nvalue = [0, 10]"] ;
45 -> 46 ;
47 [label="PE <= 17.5\ngini = 0.3\nsamples = 4\nvalue = [4, 1]"] ;
45 -> 47 ;
48 [label="gini = 0.0\nsamples = 3\nvalue = [4, 0]"] ;
47 -> 48 ;
49 [label="gini = 0.0\nsamples = 1\nvalue = [0, 1]"] ;
47 -> 49 ;
50 [label="xEbit vs peak <= -0.5\ngini = 0.1\nsamples = 6\nvalue = [1, 13]"] ;
8 -> 50 ;
51 [label="gini = 0.0\nsamples = 4\nvalue = [0, 10]"] ;
50 -> 51 ;
52 [label="outperf vs index 3m <= -0.0\ngini = 0.4\nsamples = 2\nvalue = [1, 3]"] ;
50 -> 52 ;
53 [label="gini = 0.0\nsamples = 1\nvalue = [1, 0]"] ;
52 -> 53 ;
54 [label="gini = 0.0\nsamples = 1\nvalue = [0, 3]"] ;
52 -> 54 ;
55 [label="market cap vs peak <= -0.2\ngini = 0.5\nsamples = 241\nvalue = [234, 144]"] ;
7 -> 55 ;
56 [label="outperf vs index 1m <= -0.1\ngini = 0.4\nsamples = 79\nvalue = [93, 38]"] ;
55 -> 56 ;
57 [label="gini = 0.0\nsamples = 4\nvalue = [0, 6]"] ;
56 -> 57 ;
58 [label="outperf vs index 1m <= 0.0\ngini = 0.4\nsamples = 75\nvalue = [93, 32]"] ;
56 -> 58 ;
59 [label="PE vs peak <= -0.3\ngini = 0.4\nsamples = 45\nvalue = [49, 25]"] ;
58 -> 59 ;
60 [label="ND/market cap <= 0.0\ngini = 0.4\nsamples = 35\nvalue = [42, 13]"] ;
59 -> 60 ;
61 [label="market cap vs peak <= -0.2\ngini = 0.2\nsamples = 26\nvalue = [34, 5]"] ;
60 -> 61 ;
62 [label="LT momentum <= -0.4\ngini = 0.1\nsamples = 21\nvalue = [30, 1]"] ;
61 -> 62 ;
63 [label="gini = 0.0\nsamples = 1\nvalue = [0, 1]"] ;
62 -> 63 ;
64 [label="gini = 0.0\nsamples = 20\nvalue = [30, 0]"] ;
62 -> 64 ;
65 [label="xSales vs peak <= -0.4\ngini = 0.5\nsamples = 5\nvalue = [4, 4]"] ;
61 -> 65 ;
66 [label="gini = 0.0\nsamples = 1\nvalue = [0, 2]"] ;
65 -> 66 ;
67 [label="xEbit vs peak <= -3.6\ngini = 0.4\nsamples = 4\nvalue = [4, 2]"] ;
65 -> 67 ;
68 [label="gini = 0.0\nsamples = 1\nvalue = [0, 2]"] ;
67 -> 68 ;
69 [label="gini = 0.0\nsamples = 3\nvalue = [4, 0]"] ;
67 -> 69 ;
70 [label="xEbit vs peak <= -0.3\ngini = 0.5\nsamples = 9\nvalue = [8, 8]"] ;
60 -> 70 ;
71 [label="outperf vs index 3m <= -0.1\ngini = 0.3\nsamples = 6\nvalue = [8, 2]"] ;
70 -> 71 ;
72 [label="gini = 0.0\nsamples = 1\nvalue = [0, 2]"] ;
71 -> 72 ;
73 [label="gini = 0.0\nsamples = 5\nvalue = [8, 0]"] ;
71 -> 73 ;
74 [label="gini = 0.0\nsamples = 3\nvalue = [0, 6]"] ;
70 -> 74 ;
75 [label="outperf vs index 1m <= -0.1\ngini = 0.5\nsamples = 10\nvalue = [7, 12]"] ;
59 -> 75 ;
76 [label="gini = 0.0\nsamples = 2\nvalue = [7, 0]"] ;
75 -> 76 ;
77 [label="gini = 0.0\nsamples = 8\nvalue = [0, 12]"] ;
75 -> 77 ;
78 [label="ND/market cap <= 0.1\ngini = 0.2\nsamples = 30\nvalue = [44, 7]"] ;
58 -> 78 ;
79 [label="xEbit <= 38.0\ngini = 0.2\nsamples = 29\nvalue = [44, 5]"] ;
78 -> 79 ;
80 [label="market cap vs peak <= -0.3\ngini = 0.1\nsamples = 28\nvalue = [44, 3]"] ;
79 -> 80 ;
81 [label="Index st momentum <= 0.1\ngini = 0.5\nsamples = 2\nvalue = [1, 1]"] ;
80 -> 81 ;
82 [label="gini = 0.0\nsamples = 1\nvalue = [0, 1]"] ;
81 -> 82 ;
83 [label="gini = 0.0\nsamples = 1\nvalue = [1, 0]"] ;
81 -> 83 ;
84 [label="outperf vs index 3m <= -0.1\ngini = 0.1\nsamples = 26\nvalue = [43, 2]"] ;
80 -> 84 ;
85 [label="outperf vs index 3m <= -0.1\ngini = 0.4\nsamples = 3\nvalue = [3, 1]"] ;
84 -> 85 ;
86 [label="gini = 0.0\nsamples = 2\nvalue = [3, 0]"] ;
85 -> 86 ;
87 [label="gini = 0.0\nsamples = 1\nvalue = [0, 1]"] ;
85 -> 87 ;
88 [label="LT momentum <= -0.2\ngini = 0.0\nsamples = 23\nvalue = [40, 1]"] ;
84 -> 88 ;
89 [label="ST momentum <= 0.1\ngini = 0.2\nsamples = 6\nvalue = [9, 1]"] ;
88 -> 89 ;
90 [label="gini = 0.0\nsamples = 5\nvalue = [9, 0]"] ;
89 -> 90 ;
91 [label="gini = 0.0\nsamples = 1\nvalue = [0, 1]"] ;
89 -> 91 ;
92 [label="gini = 0.0\nsamples = 17\nvalue = [31, 0]"] ;
88 -> 92 ;
93 [label="gini = 0.0\nsamples = 1\nvalue = [0, 2]"] ;
79 -> 93 ;
94 [label="gini = 0.0\nsamples = 1\nvalue = [0, 2]"] ;
78 -> 94 ;
95 [label="market cap vs peak <= -0.2\ngini = 0.5\nsamples = 162\nvalue = [141, 106]"] ;
55 -> 95 ;
96 [label="gini = 0.0\nsamples = 3\nvalue = [0, 9]"] ;
95 -> 96 ;
97 [label="ND/market cap <= -0.1\ngini = 0.5\nsamples = 159\nvalue = [141, 97]"] ;
95 -> 97 ;
98 [label="ND/market cap <= -0.4\ngini = 0.4\nsamples = 101\nvalue = [102, 50]"] ;
97 -> 98 ;
99 [label="gini = 0.0\nsamples = 2\nvalue = [0, 4]"] ;
98 -> 99 ;
100 [label="PE vs peak <= -0.0\ngini = 0.4\nsamples = 99\nvalue = [102, 46]"] ;
98 -> 100 ;
101 [label="PE vs peak <= -0.2\ngini = 0.4\nsamples = 92\nvalue = [99, 39]"] ;
100 -> 101 ;
102 [label="PE vs peak <= -0.2\ngini = 0.4\nsamples = 62\nvalue = [62, 32]"] ;
101 -> 102 ;
103 [label="xSales vs peak <= -0.1\ngini = 0.4\nsamples = 60\nvalue = [62, 29]"] ;
102 -> 103 ;
104 [label="Index st momentum <= -0.1\ngini = 0.5\nsamples = 43\nvalue = [39, 25]"] ;
103 -> 104 ;
105 [label="market cap vs peak <= -0.1\ngini = 0.5\nsamples = 29\nvalue = [22, 22]"] ;
104 -> 105 ;
106 [label="gini = 0.0\nsamples = 2\nvalue = [0, 5]"] ;
105 -> 106 ;
107 [label="xEbit vs peak <= -0.5\ngini = 0.5\nsamples = 27\nvalue = [22, 17]"] ;
105 -> 107 ;
108 [label="gini = 0.0\nsamples = 3\nvalue = [0, 4]"] ;
107 -> 108 ;
109 [label="market cap vs peak <= -0.1\ngini = 0.5\nsamples = 24\nvalue = [22, 13]"] ;
107 -> 109 ;
110 [label="ST momentum <= -0.3\ngini = 0.3\nsamples = 15\nvalue = [15, 4]"] ;
109 -> 110 ;
111 [label="gini = 0.0\nsamples = 1\nvalue = [0, 1]"] ;
110 -> 111 ;
112 [label="xSales <= 2.8\ngini = 0.3\nsamples = 14\nvalue = [15, 3]"] ;
110 -> 112 ;
113 [label="xSales vs peak <= -0.3\ngini = 0.2\nsamples = 13\nvalue = [15, 2]"] ;
112 -> 113 ;
114 [label="xEbit <= 17.7\ngini = 0.5\nsamples = 2\nvalue = [1, 1]"] ;
113 -> 114 ;
115 [label="gini = 0.0\nsamples = 1\nvalue = [0, 1]"] ;
114 -> 115 ;
116 [label="gini = 0.0\nsamples = 1\nvalue = [1, 0]"] ;
114 -> 116 ;
117 [label="xSales vs peak <= -0.1\ngini = 0.1\nsamples = 11\nvalue = [14, 1]"] ;
113 -> 117 ;
118 [label="gini = 0.0\nsamples = 7\nvalue = [10, 0]"] ;
117 -> 118 ;
119 [label="Index st momentum <= -0.1\ngini = 0.3\nsamples = 4\nvalue = [4, 1]"] ;
117 -> 119 ;
120 [label="gini = 0.0\nsamples = 2\nvalue = [3, 0]"] ;
119 -> 120 ;
121 [label="xSales vs peak <= -0.1\ngini = 0.5\nsamples = 2\nvalue = [1, 1]"] ;
119 -> 121 ;
122 [label="gini = 0.0\nsamples = 1\nvalue = [0, 1]"] ;
121 -> 122 ;
123 [label="gini = 0.0\nsamples = 1\nvalue = [1, 0]"] ;
121 -> 123 ;
124 [label="gini = 0.0\nsamples = 1\nvalue = [0, 1]"] ;
112 -> 124 ;
125 [label="outperf vs index 1m <= 0.0\ngini = 0.5\nsamples = 9\nvalue = [7, 9]"] ;
109 -> 125 ;
126 [label="gini = 0.0\nsamples = 3\nvalue = [0, 7]"] ;
125 -> 126 ;
127 [label="ND/market cap <= -0.1\ngini = 0.3\nsamples = 6\nvalue = [7, 2]"] ;
125 -> 127 ;
128 [label="PE vs peak <= -0.8\ngini = 0.4\nsamples = 3\nvalue = [1, 2]"] ;
127 -> 128 ;
129 [label="gini = 0.0\nsamples = 1\nvalue = [1, 0]"] ;
128 -> 129 ;
130 [label="gini = 0.0\nsamples = 2\nvalue = [0, 2]"] ;
128 -> 130 ;
131 [label="gini = 0.0\nsamples = 3\nvalue = [6, 0]"] ;
127 -> 131 ;
132 [label="outperf vs index 3m <= -0.1\ngini = 0.3\nsamples = 14\nvalue = [17, 3]"] ;
104 -> 132 ;
133 [label="gini = 0.0\nsamples = 1\nvalue = [0, 1]"] ;
132 -> 133 ;
134 [label="ST momentum <= 0.4\ngini = 0.2\nsamples = 13\nvalue = [17, 2]"] ;
132 -> 134 ;
135 [label="market cap vs peak <= -0.1\ngini = 0.1\nsamples = 12\nvalue = [17, 1]"] ;
134 -> 135 ;
136 [label="market cap vs peak <= -0.1\ngini = 0.2\nsamples = 4\nvalue = [6, 1]"] ;
135 -> 136 ;
137 [label="gini = 0.0\nsamples = 3\nvalue = [6, 0]"] ;
136 -> 137 ;
138 [label="gini = 0.0\nsamples = 1\nvalue = [0, 1]"] ;
136 -> 138 ;
139 [label="gini = 0.0\nsamples = 8\nvalue = [11, 0]"] ;
135 -> 139 ;
140 [label="gini = 0.0\nsamples = 1\nvalue = [0, 1]"] ;
134 -> 140 ;
141 [label="Index st momentum <= -0.2\ngini = 0.3\nsamples = 17\nvalue = [23, 4]"] ;
103 -> 141 ;
142 [label="gini = 0.0\nsamples = 1\nvalue = [0, 1]"] ;
141 -> 142 ;
143 [label="market cap vs peak <= -0.0\ngini = 0.2\nsamples = 16\nvalue = [23, 3]"] ;
141 -> 143 ;
144 [label="xEbit <= 18.9\ngini = 0.1\nsamples = 11\nvalue = [18, 1]"] ;
143 -> 144 ;
145 [label="gini = 0.0\nsamples = 9\nvalue = [14, 0]"] ;
144 -> 145 ;
146 [label="PE vs peak <= -0.4\ngini = 0.3\nsamples = 2\nvalue = [4, 1]"] ;
144 -> 146 ;
147 [label="gini = 0.0\nsamples = 1\nvalue = [0, 1]"] ;
146 -> 147 ;
148 [label="gini = 0.0\nsamples = 1\nvalue = [4, 0]"] ;
146 -> 148 ;
149 [label="xSales vs peak <= -0.0\ngini = 0.4\nsamples = 5\nvalue = [5, 2]"] ;
143 -> 149 ;
150 [label="gini = 0.0\nsamples = 1\nvalue = [0, 1]"] ;
149 -> 150 ;
151 [label="LT momentum <= 0.3\ngini = 0.3\nsamples = 4\nvalue = [5, 1]"] ;
149 -> 151 ;
152 [label="gini = 0.0\nsamples = 1\nvalue = [3, 0]"] ;
151 -> 152 ;
153 [label="xEbit vs peak <= -0.2\ngini = 0.4\nsamples = 3\nvalue = [2, 1]"] ;
151 -> 153 ;
154 [label="gini = 0.0\nsamples = 1\nvalue = [0, 1]"] ;
153 -> 154 ;
155 [label="gini = 0.0\nsamples = 2\nvalue = [2, 0]"] ;
153 -> 155 ;
156 [label="gini = 0.0\nsamples = 2\nvalue = [0, 3]"] ;
102 -> 156 ;
157 [label="xSales vs peak <= -0.1\ngini = 0.3\nsamples = 30\nvalue = [37, 7]"] ;
101 -> 157 ;
158 [label="ST momentum <= 0.2\ngini = 0.4\nsamples = 15\nvalue = [18, 6]"] ;
157 -> 158 ;
159 [label="xSales vs peak <= -0.1\ngini = 0.2\nsamples = 10\nvalue = [16, 2]"] ;
158 -> 159 ;
160 [label="gini = 0.0\nsamples = 8\nvalue = [16, 0]"] ;
159 -> 160 ;
161 [label="gini = 0.0\nsamples = 2\nvalue = [0, 2]"] ;
159 -> 161 ;
162 [label="market cap vs peak <= -0.1\ngini = 0.4\nsamples = 5\nvalue = [2, 4]"] ;
158 -> 162 ;
163 [label="gini = 0.0\nsamples = 2\nvalue = [0, 2]"] ;
162 -> 163 ;
164 [label="xSales <= 0.4\ngini = 0.5\nsamples = 3\nvalue = [2, 2]"] ;
162 -> 164 ;
165 [label="gini = 0.0\nsamples = 2\nvalue = [2, 0]"] ;
164 -> 165 ;
166 [label="gini = 0.0\nsamples = 1\nvalue = [0, 2]"] ;
164 -> 166 ;
167 [label="PE vs peak <= -0.1\ngini = 0.1\nsamples = 15\nvalue = [19, 1]"] ;
157 -> 167 ;
168 [label="gini = 0.0\nsamples = 12\nvalue = [16, 0]"] ;
167 -> 168 ;
169 [label="Index st momentum <= -0.1\ngini = 0.4\nsamples = 3\nvalue = [3, 1]"] ;
167 -> 169 ;
170 [label="gini = 0.0\nsamples = 2\nvalue = [3, 0]"] ;
169 -> 170 ;
171 [label="gini = 0.0\nsamples = 1\nvalue = [0, 1]"] ;
169 -> 171 ;
172 [label="net income vs peak <= -0.1\ngini = 0.4\nsamples = 7\nvalue = [3, 7]"] ;
100 -> 172 ;
173 [label="xEbit <= 6.5\ngini = 0.5\nsamples = 5\nvalue = [3, 4]"] ;
172 -> 173 ;
174 [label="gini = 0.0\nsamples = 2\nvalue = [0, 3]"] ;
173 -> 174 ;
175 [label="PE <= 13.2\ngini = 0.4\nsamples = 3\nvalue = [3, 1]"] ;
173 -> 175 ;
176 [label="gini = 0.0\nsamples = 2\nvalue = [3, 0]"] ;
175 -> 176 ;
177 [label="gini = 0.0\nsamples = 1\nvalue = [0, 1]"] ;
175 -> 177 ;
178 [label="gini = 0.0\nsamples = 2\nvalue = [0, 3]"] ;
172 -> 178 ;
179 [label="ND/market cap <= -0.1\ngini = 0.5\nsamples = 58\nvalue = [39, 47]"] ;
97 -> 179 ;
180 [label="gini = 0.0\nsamples = 6\nvalue = [0, 10]"] ;
179 -> 180 ;
181 [label="market cap vs peak <= -0.0\ngini = 0.5\nsamples = 52\nvalue = [39, 37]"] ;
179 -> 181 ;
182 [label="outperf vs index 3m <= 0.1\ngini = 0.4\nsamples = 28\nvalue = [13, 26]"] ;
181 -> 182 ;
183 [label="Margin vs peak <= -0.1\ngini = 0.3\nsamples = 21\nvalue = [6, 23]"] ;
182 -> 183 ;
184 [label="gini = 0.0\nsamples = 8\nvalue = [0, 12]"] ;
183 -> 184 ;
185 [label="market cap vs peak <= -0.1\ngini = 0.5\nsamples = 13\nvalue = [6, 11]"] ;
183 -> 185 ;
186 [label="gini = 0.0\nsamples = 3\nvalue = [3, 0]"] ;
185 -> 186 ;
187 [label="PE vs peak <= -0.4\ngini = 0.3\nsamples = 10\nvalue = [3, 11]"] ;
185 -> 187 ;
188 [label="gini = 0.0\nsamples = 3\nvalue = [0, 5]"] ;
187 -> 188 ;
189 [label="LT momentum <= -0.2\ngini = 0.4\nsamples = 7\nvalue = [3, 6]"] ;
187 -> 189 ;
190 [label="gini = 0.0\nsamples = 2\nvalue = [0, 3]"] ;
189 -> 190 ;
191 [label="outperf vs index 1m <= 0.0\ngini = 0.5\nsamples = 5\nvalue = [3, 3]"] ;
189 -> 191 ;
192 [label="gini = 0.0\nsamples = 2\nvalue = [2, 0]"] ;
191 -> 192 ;
193 [label="Index st momentum <= -0.1\ngini = 0.4\nsamples = 3\nvalue = [1, 3]"] ;
191 -> 193 ;
194 [label="gini = 0.0\nsamples = 2\nvalue = [0, 3]"] ;
193 -> 194 ;
195 [label="gini = 0.0\nsamples = 1\nvalue = [1, 0]"] ;
193 -> 195 ;
196 [label="market cap vs peak <= -0.1\ngini = 0.4\nsamples = 7\nvalue = [7, 3]"] ;
182 -> 196 ;
197 [label="gini = 0.0\nsamples = 2\nvalue = [0, 3]"] ;
196 -> 197 ;
198 [label="gini = 0.0\nsamples = 5\nvalue = [7, 0]"] ;
196 -> 198 ;
199 [label="outperf vs index 3m <= -0.0\ngini = 0.4\nsamples = 24\nvalue = [26, 11]"] ;
181 -> 199 ;
200 [label="gini = 0.0\nsamples = 1\nvalue = [0, 4]"] ;
199 -> 200 ;
201 [label="PE vs peak <= -0.3\ngini = 0.3\nsamples = 23\nvalue = [26, 7]"] ;
199 -> 201 ;
202 [label="ND/market cap <= -0.1\ngini = 0.1\nsamples = 16\nvalue = [23, 2]"] ;
201 -> 202 ;
203 [label="ST momentum <= 0.4\ngini = 0.5\nsamples = 3\nvalue = [2, 2]"] ;
202 -> 203 ;
204 [label="gini = 0.0\nsamples = 1\nvalue = [0, 2]"] ;
203 -> 204 ;
205 [label="gini = 0.0\nsamples = 2\nvalue = [2, 0]"] ;
203 -> 205 ;
206 [label="gini = 0.0\nsamples = 13\nvalue = [21, 0]"] ;
202 -> 206 ;
207 [label="ebit vs peak <= -0.0\ngini = 0.5\nsamples = 7\nvalue = [3, 5]"] ;
201 -> 207 ;
208 [label="gini = 0.0\nsamples = 1\nvalue = [1, 0]"] ;
207 -> 208 ;
209 [label="Index st momentum <= 0.1\ngini = 0.4\nsamples = 6\nvalue = [2, 5]"] ;
207 -> 209 ;
210 [label="gini = 0.0\nsamples = 4\nvalue = [0, 5]"] ;
209 -> 210 ;
211 [label="gini = 0.0\nsamples = 2\nvalue = [2, 0]"] ;
209 -> 211 ;
212 [label="gini = 0.0\nsamples = 6\nvalue = [11, 0]"] ;
6 -> 212 ;
213 [label="ST momentum <= 0.2\ngini = 0.4\nsamples = 13\nvalue = [6, 17]"] ;
5 -> 213 ;
214 [label="LT momentum <= 0.2\ngini = 0.1\nsamples = 7\nvalue = [1, 15]"] ;
213 -> 214 ;
215 [label="gini = 0.0\nsamples = 6\nvalue = [0, 15]"] ;
214 -> 215 ;
216 [label="gini = 0.0\nsamples = 1\nvalue = [1, 0]"] ;
214 -> 216 ;
217 [label="xSales vs peak <= -0.1\ngini = 0.4\nsamples = 6\nvalue = [5, 2]"] ;
213 -> 217 ;
218 [label="gini = 0.0\nsamples = 2\nvalue = [2, 0]"] ;
217 -> 218 ;
219 [label="xEbit <= 15.6\ngini = 0.5\nsamples = 4\nvalue = [3, 2]"] ;
217 -> 219 ;
220 [label="gini = 0.0\nsamples = 1\nvalue = [2, 0]"] ;
219 -> 220 ;
221 [label="xEbit vs peak <= -0.0\ngini = 0.4\nsamples = 3\nvalue = [1, 2]"] ;
219 -> 221 ;
222 [label="gini = 0.0\nsamples = 1\nvalue = [0, 1]"] ;
221 -> 222 ;
223 [label="outperf vs index 3m <= -0.1\ngini = 0.5\nsamples = 2\nvalue = [1, 1]"] ;
221 -> 223 ;
224 [label="gini = 0.0\nsamples = 1\nvalue = [0, 1]"] ;
223 -> 224 ;
225 [label="gini = 0.0\nsamples = 1\nvalue = [1, 0]"] ;
223 -> 225 ;
226 [label="PE <= 17.8\ngini = 0.4\nsamples = 25\nvalue = [13, 28]"] ;
4 -> 226 ;
227 [label="xEbit vs peak <= -0.5\ngini = 0.3\nsamples = 20\nvalue = [7, 27]"] ;
226 -> 227 ;
228 [label="gini = 0.0\nsamples = 7\nvalue = [0, 16]"] ;
227 -> 228 ;
229 [label="ND/market cap <= 0.1\ngini = 0.5\nsamples = 13\nvalue = [7, 11]"] ;
227 -> 229 ;
230 [label="ND/market cap <= 0.1\ngini = 0.3\nsamples = 4\nvalue = [4, 1]"] ;
229 -> 230 ;
231 [label="PE vs peak <= -0.2\ngini = 0.5\nsamples = 2\nvalue = [1, 1]"] ;
230 -> 231 ;
232 [label="gini = 0.0\nsamples = 1\nvalue = [0, 1]"] ;
231 -> 232 ;
233 [label="gini = 0.0\nsamples = 1\nvalue = [1, 0]"] ;
231 -> 233 ;
234 [label="gini = 0.0\nsamples = 2\nvalue = [3, 0]"] ;
230 -> 234 ;
235 [label="xSales vs peak <= -0.1\ngini = 0.4\nsamples = 9\nvalue = [3, 10]"] ;
229 -> 235 ;
236 [label="gini = 0.0\nsamples = 2\nvalue = [2, 0]"] ;
235 -> 236 ;
237 [label="outperf vs index 1m <= -0.0\ngini = 0.2\nsamples = 7\nvalue = [1, 10]"] ;
235 -> 237 ;
238 [label="Index st momentum <= -0.1\ngini = 0.4\nsamples = 2\nvalue = [1, 2]"] ;
237 -> 238 ;
239 [label="gini = 0.0\nsamples = 1\nvalue = [0, 2]"] ;
238 -> 239 ;
240 [label="gini = 0.0\nsamples = 1\nvalue = [1, 0]"] ;
238 -> 240 ;
241 [label="gini = 0.0\nsamples = 5\nvalue = [0, 8]"] ;
237 -> 241 ;
242 [label="outperf vs index 3m <= 0.0\ngini = 0.2\nsamples = 5\nvalue = [6, 1]"] ;
226 -> 242 ;
243 [label="gini = 0.0\nsamples = 3\nvalue = [5, 0]"] ;
242 -> 243 ;
244 [label="ST momentum <= 0.1\ngini = 0.5\nsamples = 2\nvalue = [1, 1]"] ;
242 -> 244 ;
245 [label="gini = 0.0\nsamples = 1\nvalue = [1, 0]"] ;
244 -> 245 ;
246 [label="gini = 0.0\nsamples = 1\nvalue = [0, 1]"] ;
244 -> 246 ;
247 [label="market cap vs peak <= -0.3\ngini = 0.5\nsamples = 829\nvalue = [849, 470]"] ;
1 -> 247 ;
248 [label="LT momentum <= -0.0\ngini = 0.5\nsamples = 96\nvalue = [65, 94]"] ;
247 -> 248 ;
249 [label="PE <= 10.7\ngini = 0.5\nsamples = 48\nvalue = [44, 38]"] ;
248 -> 249 ;
250 [label="PE <= 4.9\ngini = 0.5\nsamples = 31\nvalue = [20, 32]"] ;
249 -> 250 ;
251 [label="PE <= -32.7\ngini = 0.4\nsamples = 9\nvalue = [10, 3]"] ;
250 -> 251 ;
252 [label="gini = 0.0\nsamples = 3\nvalue = [5, 0]"] ;
251 -> 252 ;
253 [label="xEbit <= 37.9\ngini = 0.5\nsamples = 6\nvalue = [5, 3]"] ;
251 -> 253 ;
254 [label="xEbit vs peak <= -0.1\ngini = 0.4\nsamples = 3\nvalue = [1, 3]"] ;
253 -> 254 ;
255 [label="gini = 0.0\nsamples = 1\nvalue = [1, 0]"] ;
254 -> 255 ;
256 [label="gini = 0.0\nsamples = 2\nvalue = [0, 3]"] ;
254 -> 256 ;
257 [label="gini = 0.0\nsamples = 3\nvalue = [4, 0]"] ;
253 -> 257 ;
258 [label="Index st momentum <= -0.2\ngini = 0.4\nsamples = 22\nvalue = [10, 29]"] ;
250 -> 258 ;
259 [label="gini = 0.0\nsamples = 1\nvalue = [2, 0]"] ;
258 -> 259 ;
260 [label="xSales <= 4.3\ngini = 0.3\nsamples = 21\nvalue = [8, 29]"] ;
258 -> 260 ;
261 [label="gini = 0.0\nsamples = 8\nvalue = [0, 18]"] ;
260 -> 261 ;
262 [label="PE vs peak <= -0.7\ngini = 0.5\nsamples = 13\nvalue = [8, 11]"] ;
260 -> 262 ;
263 [label="xSales <= 6.3\ngini = 0.4\nsamples = 10\nvalue = [4, 11]"] ;
262 -> 263 ;
264 [label="gini = 0.0\nsamples = 5\nvalue = [0, 6]"] ;
263 -> 264 ;
265 [label="xSales vs peak <= -0.3\ngini = 0.5\nsamples = 5\nvalue = [4, 5]"] ;
263 -> 265 ;
266 [label="Index st momentum <= 0.0\ngini = 0.4\nsamples = 3\nvalue = [4, 2]"] ;
265 -> 266 ;
267 [label="gini = 0.0\nsamples = 1\nvalue = [2, 0]"] ;
266 -> 267 ;
268 [label="xEbit vs peak <= -0.7\ngini = 0.5\nsamples = 2\nvalue = [2, 2]"] ;
266 -> 268 ;
269 [label="gini = 0.0\nsamples = 1\nvalue = [0, 2]"] ;
268 -> 269 ;
270 [label="gini = 0.0\nsamples = 1\nvalue = [2, 0]"] ;
268 -> 270 ;
271 [label="gini = 0.0\nsamples = 2\nvalue = [0, 3]"] ;
265 -> 271 ;
272 [label="gini = 0.0\nsamples = 3\nvalue = [4, 0]"] ;
262 -> 272 ;
273 [label="PE vs peak <= -0.4\ngini = 0.3\nsamples = 17\nvalue = [24, 6]"] ;
249 -> 273 ;
274 [label="xSales <= 1.8\ngini = 0.1\nsamples = 15\nvalue = [24, 2]"] ;
273 -> 274 ;
275 [label="outperf vs index 3m <= -0.1\ngini = 0.4\nsamples = 2\nvalue = [1, 2]"] ;
274 -> 275 ;
276 [label="gini = 0.0\nsamples = 1\nvalue = [1, 0]"] ;
275 -> 276 ;
277 [label="gini = 0.0\nsamples = 1\nvalue = [0, 2]"] ;
275 -> 277 ;
278 [label="gini = 0.0\nsamples = 13\nvalue = [23, 0]"] ;
274 -> 278 ;
279 [label="gini = 0.0\nsamples = 2\nvalue = [0, 4]"] ;
273 -> 279 ;
280 [label="Index vs max <= -0.2\ngini = 0.4\nsamples = 48\nvalue = [21, 56]"] ;
248 -> 280 ;
281 [label="xSales <= 9.2\ngini = 0.5\nsamples = 29\nvalue = [16, 23]"] ;
280 -> 281 ;
282 [label="PE <= -2.6\ngini = 0.5\nsamples = 27\nvalue = [13, 23]"] ;
281 -> 282 ;
283 [label="gini = 0.0\nsamples = 2\nvalue = [3, 0]"] ;
282 -> 283 ;
284 [label="Index st momentum <= -0.1\ngini = 0.4\nsamples = 25\nvalue = [10, 23]"] ;
282 -> 284 ;
285 [label="Index st momentum <= -0.1\ngini = 0.3\nsamples = 19\nvalue = [5, 21]"] ;
284 -> 285 ;
286 [label="ST momentum <= -0.2\ngini = 0.4\nsamples = 12\nvalue = [5, 10]"] ;
285 -> 286 ;
287 [label="outperf vs index 1m <= -0.0\ngini = 0.4\nsamples = 11\nvalue = [3, 10]"] ;
286 -> 287 ;
288 [label="gini = 0.0\nsamples = 6\nvalue = [0, 7]"] ;
287 -> 288 ;
289 [label="xSales <= 8.5\ngini = 0.5\nsamples = 5\nvalue = [3, 3]"] ;
287 -> 289 ;
290 [label="Margin vs peak <= -0.2\ngini = 0.4\nsamples = 4\nvalue = [3, 1]"] ;
289 -> 290 ;
291 [label="gini = 0.0\nsamples = 1\nvalue = [0, 1]"] ;
290 -> 291 ;
292 [label="gini = 0.0\nsamples = 3\nvalue = [3, 0]"] ;
290 -> 292 ;
293 [label="gini = 0.0\nsamples = 1\nvalue = [0, 2]"] ;
289 -> 293 ;
294 [label="gini = 0.0\nsamples = 1\nvalue = [2, 0]"] ;
286 -> 294 ;
295 [label="gini = 0.0\nsamples = 7\nvalue = [0, 11]"] ;
285 -> 295 ;
296 [label="xEbit vs peak <= -0.2\ngini = 0.4\nsamples = 6\nvalue = [5, 2]"] ;
284 -> 296 ;
297 [label="gini = 0.0\nsamples = 1\nvalue = [0, 1]"] ;
296 -> 297 ;
298 [label="PE vs peak <= -0.9\ngini = 0.3\nsamples = 5\nvalue = [5, 1]"] ;
296 -> 298 ;
299 [label="ST momentum <= -0.1\ngini = 0.5\nsamples = 2\nvalue = [1, 1]"] ;
298 -> 299 ;
300 [label="gini = 0.0\nsamples = 1\nvalue = [1, 0]"] ;
299 -> 300 ;
301 [label="gini = 0.0\nsamples = 1\nvalue = [0, 1]"] ;
299 -> 301 ;
302 [label="gini = 0.0\nsamples = 3\nvalue = [4, 0]"] ;
298 -> 302 ;
303 [label="gini = 0.0\nsamples = 2\nvalue = [3, 0]"] ;
281 -> 303 ;
304 [label="outperf vs index 1m <= -0.0\ngini = 0.2\nsamples = 19\nvalue = [5, 33]"] ;
280 -> 304 ;
305 [label="xEbit vs peak <= -0.3\ngini = 0.4\nsamples = 5\nvalue = [4, 2]"] ;
304 -> 305 ;
306 [label="gini = 0.0\nsamples = 2\nvalue = [0, 2]"] ;
305 -> 306 ;
307 [label="gini = 0.0\nsamples = 3\nvalue = [4, 0]"] ;
305 -> 307 ;
308 [label="ND/market cap <= 1.2\ngini = 0.1\nsamples = 14\nvalue = [1, 31]"] ;
304 -> 308 ;
309 [label="gini = 0.0\nsamples = 13\nvalue = [0, 31]"] ;
308 -> 309 ;
310 [label="gini = 0.0\nsamples = 1\nvalue = [1, 0]"] ;
308 -> 310 ;
311 [label="outperf vs index 1m <= 0.1\ngini = 0.4\nsamples = 733\nvalue = [784, 376]"] ;
247 -> 311 ;
312 [label="outperf vs index 1m <= 0.0\ngini = 0.4\nsamples = 677\nvalue = [732, 328]"] ;
311 -> 312 ;
313 [label="outperf vs index 3m <= 0.0\ngini = 0.4\nsamples = 625\nvalue = [662, 318]"] ;
312 -> 313 ;
314 [label="PE <= 15.6\ngini = 0.4\nsamples = 423\nvalue = [477, 196]"] ;
313 -> 314 ;
315 [label="PE vs peak <= -0.9\ngini = 0.4\nsamples = 302\nvalue = [355, 125]"] ;
314 -> 315 ;
316 [label="market cap vs peak <= -0.0\ngini = 0.5\nsamples = 31\nvalue = [27, 22]"] ;
315 -> 316 ;
317 [label="outperf vs index 1m <= 0.0\ngini = 0.5\nsamples = 28\nvalue = [20, 22]"] ;
316 -> 317 ;
318 [label="ND/market cap <= 0.3\ngini = 0.5\nsamples = 25\nvalue = [16, 22]"] ;
317 -> 318 ;
319 [label="Index st momentum <= -0.1\ngini = 0.4\nsamples = 10\nvalue = [12, 5]"] ;
318 -> 319 ;
320 [label="xSales <= 0.8\ngini = 0.5\nsamples = 5\nvalue = [3, 5]"] ;
319 -> 320 ;
321 [label="gini = 0.0\nsamples = 2\nvalue = [0, 3]"] ;
320 -> 321 ;
322 [label="Index st momentum <= -0.1\ngini = 0.5\nsamples = 3\nvalue = [3, 2]"] ;
320 -> 322 ;
323 [label="gini = 0.0\nsamples = 2\nvalue = [3, 0]"] ;
322 -> 323 ;
324 [label="gini = 0.0\nsamples = 1\nvalue = [0, 2]"] ;
322 -> 324 ;
325 [label="gini = 0.0\nsamples = 5\nvalue = [9, 0]"] ;
319 -> 325 ;
326 [label="LT momentum <= -0.1\ngini = 0.3\nsamples = 15\nvalue = [4, 17]"] ;
318 -> 326 ;
327 [label="outperf vs index 3m <= -0.1\ngini = 0.1\nsamples = 8\nvalue = [1, 12]"] ;
326 -> 327 ;
328 [label="gini = 0.0\nsamples = 1\nvalue = [1, 0]"] ;
327 -> 328 ;
329 [label="gini = 0.0\nsamples = 7\nvalue = [0, 12]"] ;
327 -> 329 ;
330 [label="LT momentum <= -0.0\ngini = 0.5\nsamples = 7\nvalue = [3, 5]"] ;
326 -> 330 ;
331 [label="gini = 0.0\nsamples = 2\nvalue = [2, 0]"] ;
330 -> 331 ;
332 [label="PE vs peak <= -1.4\ngini = 0.3\nsamples = 5\nvalue = [1, 5]"] ;
330 -> 332 ;
333 [label="gini = 0.0\nsamples = 1\nvalue = [1, 0]"] ;
332 -> 333 ;
334 [label="gini = 0.0\nsamples = 4\nvalue = [0, 5]"] ;
332 -> 334 ;
335 [label="gini = 0.0\nsamples = 3\nvalue = [4, 0]"] ;
317 -> 335 ;
336 [label="gini = 0.0\nsamples = 3\nvalue = [7, 0]"] ;
316 -> 336 ;
337 [label="outperf vs index 1m <= 0.0\ngini = 0.4\nsamples = 271\nvalue = [328, 103]"] ;
315 -> 337 ;
338 [label="Index vs max <= -0.4\ngini = 0.4\nsamples = 260\nvalue = [317, 94]"] ;
337 -> 338 ;
339 [label="Margin vs peak <= -0.1\ngini = 0.5\nsamples = 21\nvalue = [16, 18]"] ;
338 -> 339 ;
340 [label="ND/market cap <= 0.2\ngini = 0.3\nsamples = 9\nvalue = [3, 12]"] ;
339 -> 340 ;
341 [label="gini = 0.0\nsamples = 5\nvalue = [0, 9]"] ;
340 -> 341 ;
342 [label="market cap vs peak <= -0.2\ngini = 0.5\nsamples = 4\nvalue = [3, 3]"] ;
340 -> 342 ;
343 [label="gini = 0.0\nsamples = 2\nvalue = [0, 3]"] ;
342 -> 343 ;
344 [label="gini = 0.0\nsamples = 2\nvalue = [3, 0]"] ;
342 -> 344 ;
345 [label="ND/market cap <= 0.7\ngini = 0.4\nsamples = 12\nvalue = [13, 6]"] ;
339 -> 345 ;
346 [label="Index st momentum <= -0.1\ngini = 0.2\nsamples = 10\nvalue = [13, 2]"] ;
345 -> 346 ;
347 [label="market cap vs peak <= -0.2\ngini = 0.3\nsamples = 7\nvalue = [7, 2]"] ;
346 -> 347 ;
348 [label="gini = 0.0\nsamples = 1\nvalue = [0, 1]"] ;
347 -> 348 ;
349 [label="xEbit vs peak <= -0.1\ngini = 0.2\nsamples = 6\nvalue = [7, 1]"] ;
347 -> 349 ;
350 [label="gini = 0.0\nsamples = 4\nvalue = [6, 0]"] ;
349 -> 350 ;
351 [label="ST momentum <= 0.0\ngini = 0.5\nsamples = 2\nvalue = [1, 1]"] ;
349 -> 351 ;
352 [label="gini = 0.0\nsamples = 1\nvalue = [1, 0]"] ;
351 -> 352 ;
353 [label="gini = 0.0\nsamples = 1\nvalue = [0, 1]"] ;
351 -> 353 ;
354 [label="gini = 0.0\nsamples = 3\nvalue = [6, 0]"] ;
346 -> 354 ;
355 [label="gini = 0.0\nsamples = 2\nvalue = [0, 4]"] ;
345 -> 355 ;
356 [label="PE vs peak <= -0.1\ngini = 0.3\nsamples = 239\nvalue = [301, 76]"] ;
338 -> 356 ;
357 [label="xEbit <= 14.5\ngini = 0.3\nsamples = 208\nvalue = [268, 58]"] ;
356 -> 357 ;
358 [label="xEbit vs peak <= -0.8\ngini = 0.4\nsamples = 132\nvalue = [151, 46]"] ;
357 -> 358 ;
359 [label="gini = 0.0\nsamples = 2\nvalue = [0, 2]"] ;
358 -> 359 ;
360 [label="xEbit <= 14.1\ngini = 0.3\nsamples = 130\nvalue = [151, 44]"] ;
358 -> 360 ;
361 [label="market cap vs peak <= -0.1\ngini = 0.3\nsamples = 120\nvalue = [146, 32]"] ;
360 -> 361 ;
362 [label="xSales <= 1.0\ngini = 0.4\nsamples = 33\nvalue = [35, 16]"] ;
361 -> 362 ;
363 [label="PE vs peak <= -0.2\ngini = 0.3\nsamples = 25\nvalue = [34, 8]"] ;
362 -> 363 ;
364 [label="xEbit <= 10.2\ngini = 0.2\nsamples = 22\nvalue = [32, 4]"] ;
363 -> 364 ;
365 [label="PE vs peak <= -0.6\ngini = 0.2\nsamples = 21\nvalue = [32, 3]"] ;
364 -> 365 ;
366 [label="gini = 0.0\nsamples = 9\nvalue = [18, 0]"] ;
365 -> 366 ;
367 [label="xSales vs peak <= -0.2\ngini = 0.3\nsamples = 12\nvalue = [14, 3]"] ;
365 -> 367 ;
368 [label="gini = 0.0\nsamples = 1\nvalue = [0, 1]"] ;
367 -> 368 ;
369 [label="LT momentum <= -0.2\ngini = 0.2\nsamples = 11\nvalue = [14, 2]"] ;
367 -> 369 ;
370 [label="gini = 0.0\nsamples = 1\nvalue = [0, 1]"] ;
369 -> 370 ;
371 [label="Index st momentum <= -0.2\ngini = 0.1\nsamples = 10\nvalue = [14, 1]"] ;
369 -> 371 ;
372 [label="gini = 0.0\nsamples = 1\nvalue = [0, 1]"] ;
371 -> 372 ;
373 [label="gini = 0.0\nsamples = 9\nvalue = [14, 0]"] ;
371 -> 373 ;
374 [label="gini = 0.0\nsamples = 1\nvalue = [0, 1]"] ;
364 -> 374 ;
375 [label="xEbit vs peak <= -0.1\ngini = 0.4\nsamples = 3\nvalue = [2, 4]"] ;
363 -> 375 ;
376 [label="gini = 0.0\nsamples = 1\nvalue = [2, 0]"] ;
375 -> 376 ;
377 [label="gini = 0.0\nsamples = 2\nvalue = [0, 4]"] ;
375 -> 377 ;
378 [label="LT momentum <= 0.4\ngini = 0.2\nsamples = 8\nvalue = [1, 8]"] ;
362 -> 378 ;
379 [label="gini = 0.0\nsamples = 7\nvalue = [0, 8]"] ;
378 -> 379 ;
380 [label="gini = 0.0\nsamples = 1\nvalue = [1, 0]"] ;
378 -> 380 ;
381 [label="ND/market cap <= 0.7\ngini = 0.2\nsamples = 87\nvalue = [111, 16]"] ;
361 -> 381 ;
382 [label="PE <= 15.1\ngini = 0.2\nsamples = 79\nvalue = [105, 11]"] ;
381 -> 382 ;
383 [label="xEbit vs peak <= -0.7\ngini = 0.2\nsamples = 78\nvalue = [105, 10]"] ;
382 -> 383 ;
384 [label="ST momentum <= -0.0\ngini = 0.4\nsamples = 4\nvalue = [4, 2]"] ;
383 -> 384 ;
385 [label="xEbit vs peak <= -0.8\ngini = 0.4\nsamples = 3\nvalue = [1, 2]"] ;
384 -> 385 ;
386 [label="gini = 0.0\nsamples = 1\nvalue = [1, 0]"] ;
385 -> 386 ;
387 [label="gini = 0.0\nsamples = 2\nvalue = [0, 2]"] ;
385 -> 387 ;
388 [label="gini = 0.0\nsamples = 1\nvalue = [3, 0]"] ;
384 -> 388 ;
389 [label="Index st momentum <= 0.1\ngini = 0.1\nsamples = 74\nvalue = [101, 8]"] ;
383 -> 389 ;
390 [label="ebit vs peak <= -0.0\ngini = 0.1\nsamples = 73\nvalue = [101, 7]"] ;
389 -> 390 ;
391 [label="ND/market cap <= 0.1\ngini = 0.1\nsamples = 45\nvalue = [64, 2]"] ;
390 -> 391 ;
392 [label="PE <= 8.6\ngini = 0.1\nsamples = 22\nvalue = [31, 2]"] ;
391 -> 392 ;
393 [label="ND/market cap <= 0.1\ngini = 0.3\nsamples = 3\nvalue = [4, 1]"] ;
392 -> 393 ;
394 [label="gini = 0.0\nsamples = 1\nvalue = [0, 1]"] ;
393 -> 394 ;
395 [label="gini = 0.0\nsamples = 2\nvalue = [4, 0]"] ;
393 -> 395 ;
396 [label="market cap vs peak <= -0.0\ngini = 0.1\nsamples = 19\nvalue = [27, 1]"] ;
392 -> 396 ;
397 [label="gini = 0.0\nsamples = 14\nvalue = [21, 0]"] ;
396 -> 397 ;
398 [label="Index st momentum <= 0.1\ngini = 0.2\nsamples = 5\nvalue = [6, 1]"] ;
396 -> 398 ;
399 [label="gini = 0.0\nsamples = 4\nvalue = [6, 0]"] ;
398 -> 399 ;
400 [label="gini = 0.0\nsamples = 1\nvalue = [0, 1]"] ;
398 -> 400 ;
401 [label="gini = 0.0\nsamples = 23\nvalue = [33, 0]"] ;
391 -> 401 ;
402 [label="PE vs peak <= -0.6\ngini = 0.2\nsamples = 28\nvalue = [37, 5]"] ;
390 -> 402 ;
403 [label="xSales <= 0.4\ngini = 0.5\nsamples = 8\nvalue = [5, 3]"] ;
402 -> 403 ;
404 [label="gini = 0.0\nsamples = 1\nvalue = [0, 1]"] ;
403 -> 404 ;
405 [label="xEbit vs peak <= -0.3\ngini = 0.4\nsamples = 7\nvalue = [5, 2]"] ;
403 -> 405 ;
406 [label="market cap vs peak <= -0.0\ngini = 0.3\nsamples = 6\nvalue = [5, 1]"] ;
405 -> 406 ;
407 [label="gini = 0.0\nsamples = 5\nvalue = [5, 0]"] ;
406 -> 407 ;
408 [label="gini = 0.0\nsamples = 1\nvalue = [0, 1]"] ;
406 -> 408 ;
409 [label="gini = 0.0\nsamples = 1\nvalue = [0, 1]"] ;
405 -> 409 ;
410 [label="PE <= 10.3\ngini = 0.1\nsamples = 20\nvalue = [32, 2]"] ;
402 -> 410 ;
411 [label="gini = 0.0\nsamples = 13\nvalue = [24, 0]"] ;
410 -> 411 ;
412 [label="LT momentum <= -0.3\ngini = 0.3\nsamples = 7\nvalue = [8, 2]"] ;
410 -> 412 ;
413 [label="gini = 0.0\nsamples = 1\nvalue = [0, 1]"] ;
412 -> 413 ;
414 [label="xEbit <= 11.5\ngini = 0.2\nsamples = 6\nvalue = [8, 1]"] ;
412 -> 414 ;
415 [label="gini = 0.0\nsamples = 3\nvalue = [5, 0]"] ;
414 -> 415 ;
416 [label="PE <= 14.0\ngini = 0.4\nsamples = 3\nvalue = [3, 1]"] ;
414 -> 416 ;
417 [label="gini = 0.0\nsamples = 1\nvalue = [0, 1]"] ;
416 -> 417 ;
418 [label="gini = 0.0\nsamples = 2\nvalue = [3, 0]"] ;
416 -> 418 ;
419 [label="gini = 0.0\nsamples = 1\nvalue = [0, 1]"] ;
389 -> 419 ;
420 [label="gini = 0.0\nsamples = 1\nvalue = [0, 1]"] ;
382 -> 420 ;
421 [label="Margin vs peak <= -0.1\ngini = 0.5\nsamples = 8\nvalue = [6, 5]"] ;
381 -> 421 ;
422 [label="gini = 0.0\nsamples = 4\nvalue = [5, 0]"] ;
421 -> 422 ;
423 [label="outperf vs index 1m <= -0.1\ngini = 0.3\nsamples = 4\nvalue = [1, 5]"] ;
421 -> 423 ;
424 [label="gini = 0.0\nsamples = 1\nvalue = [1, 0]"] ;
423 -> 424 ;
425 [label="gini = 0.0\nsamples = 3\nvalue = [0, 5]"] ;
423 -> 425 ;
426 [label="market cap vs peak <= -0.1\ngini = 0.4\nsamples = 10\nvalue = [5, 12]"] ;
360 -> 426 ;
427 [label="xSales <= 2.3\ngini = 0.2\nsamples = 8\nvalue = [2, 12]"] ;
426 -> 427 ;
428 [label="xSales vs peak <= -0.0\ngini = 0.1\nsamples = 7\nvalue = [1, 12]"] ;
427 -> 428 ;
429 [label="gini = 0.0\nsamples = 5\nvalue = [0, 11]"] ;
428 -> 429 ;
430 [label="outperf vs index 1m <= -0.0\ngini = 0.5\nsamples = 2\nvalue = [1, 1]"] ;
428 -> 430 ;
431 [label="gini = 0.0\nsamples = 1\nvalue = [0, 1]"] ;
430 -> 431 ;
432 [label="gini = 0.0\nsamples = 1\nvalue = [1, 0]"] ;
430 -> 432 ;
433 [label="gini = 0.0\nsamples = 1\nvalue = [1, 0]"] ;
427 -> 433 ;
434 [label="gini = 0.0\nsamples = 2\nvalue = [3, 0]"] ;
426 -> 434 ;
435 [label="ST momentum <= 0.3\ngini = 0.2\nsamples = 76\nvalue = [117, 12]"] ;
357 -> 435 ;
436 [label="PE <= 11.2\ngini = 0.2\nsamples = 75\nvalue = [117, 11]"] ;
435 -> 436 ;
437 [label="Index vs max <= -0.2\ngini = 0.4\nsamples = 13\nvalue = [18, 6]"] ;
436 -> 437 ;
438 [label="xEbit <= 23.3\ngini = 0.1\nsamples = 5\nvalue = [13, 1]"] ;
437 -> 438 ;
439 [label="gini = 0.0\nsamples = 1\nvalue = [0, 1]"] ;
438 -> 439 ;
440 [label="gini = 0.0\nsamples = 4\nvalue = [13, 0]"] ;
438 -> 440 ;
441 [label="xEbit vs peak <= -0.7\ngini = 0.5\nsamples = 8\nvalue = [5, 5]"] ;
437 -> 441 ;
442 [label="market cap vs peak <= -0.2\ngini = 0.3\nsamples = 3\nvalue = [4, 1]"] ;
441 -> 442 ;
443 [label="gini = 0.0\nsamples = 1\nvalue = [0, 1]"] ;
442 -> 443 ;
444 [label="gini = 0.0\nsamples = 2\nvalue = [4, 0]"] ;
442 -> 444 ;
445 [label="outperf vs index 3m <= -0.1\ngini = 0.3\nsamples = 5\nvalue = [1, 4]"] ;
441 -> 445 ;
446 [label="gini = 0.0\nsamples = 1\nvalue = [1, 0]"] ;
445 -> 446 ;
447 [label="gini = 0.0\nsamples = 4\nvalue = [0, 4]"] ;
445 -> 447 ;
448 [label="outperf vs index 3m <= -0.1\ngini = 0.1\nsamples = 62\nvalue = [99, 5]"] ;
436 -> 448 ;
449 [label="ND/market cap <= 3.5\ngini = 0.5\nsamples = 10\nvalue = [7, 5]"] ;
448 -> 449 ;
450 [label="Index vs max <= -0.2\ngini = 0.3\nsamples = 5\nvalue = [1, 5]"] ;
449 -> 450 ;
451 [label="gini = 0.0\nsamples = 1\nvalue = [1, 0]"] ;
450 -> 451 ;
452 [label="gini = 0.0\nsamples = 4\nvalue = [0, 5]"] ;
450 -> 452 ;
453 [label="gini = 0.0\nsamples = 5\nvalue = [6, 0]"] ;
449 -> 453 ;
454 [label="gini = 0.0\nsamples = 52\nvalue = [92, 0]"] ;
448 -> 454 ;
455 [label="gini = 0.0\nsamples = 1\nvalue = [0, 1]"] ;
435 -> 455 ;
456 [label="net income vs peak <= -0.3\ngini = 0.5\nsamples = 31\nvalue = [33, 18]"] ;
356 -> 456 ;
457 [label="LT momentum <= 0.2\ngini = 0.2\nsamples = 18\nvalue = [27, 4]"] ;
456 -> 457 ;
458 [label="Index st momentum <= -0.1\ngini = 0.5\nsamples = 6\nvalue = [5, 4]"] ;
457 -> 458 ;
459 [label="PE <= 9.5\ngini = 0.3\nsamples = 3\nvalue = [1, 4]"] ;
458 -> 459 ;
460 [label="gini = 0.0\nsamples = 1\nvalue = [1, 0]"] ;
459 -> 460 ;
461 [label="gini = 0.0\nsamples = 2\nvalue = [0, 4]"] ;
459 -> 461 ;
462 [label="gini = 0.0\nsamples = 3\nvalue = [4, 0]"] ;
458 -> 462 ;
463 [label="gini = 0.0\nsamples = 12\nvalue = [22, 0]"] ;
457 -> 463 ;
464 [label="outperf vs index 1m <= -0.0\ngini = 0.4\nsamples = 13\nvalue = [6, 14]"] ;
456 -> 464 ;
465 [label="gini = 0.0\nsamples = 5\nvalue = [0, 10]"] ;
464 -> 465 ;
466 [label="PE <= 14.2\ngini = 0.5\nsamples = 8\nvalue = [6, 4]"] ;
464 -> 466 ;
467 [label="xEbit <= 10.7\ngini = 0.4\nsamples = 5\nvalue = [2, 4]"] ;
466 -> 467 ;
468 [label="gini = 0.0\nsamples = 2\nvalue = [2, 0]"] ;
467 -> 468 ;
469 [label="gini = 0.0\nsamples = 3\nvalue = [0, 4]"] ;
467 -> 469 ;
470 [label="gini = 0.0\nsamples = 3\nvalue = [4, 0]"] ;
466 -> 470 ;
471 [label="PE vs peak <= -0.4\ngini = 0.5\nsamples = 11\nvalue = [11, 9]"] ;
337 -> 471 ;
472 [label="gini = 0.0\nsamples = 4\nvalue = [0, 5]"] ;
471 -> 472 ;
473 [label="LT momentum <= -0.1\ngini = 0.4\nsamples = 7\nvalue = [11, 4]"] ;
471 -> 473 ;
474 [label="gini = 0.0\nsamples = 1\nvalue = [0, 2]"] ;
473 -> 474 ;
475 [label="market cap vs peak <= -0.0\ngini = 0.3\nsamples = 6\nvalue = [11, 2]"] ;
473 -> 475 ;
476 [label="gini = 0.0\nsamples = 5\nvalue = [11, 0]"] ;
475 -> 476 ;
477 [label="gini = 0.0\nsamples = 1\nvalue = [0, 2]"] ;
475 -> 477 ;
478 [label="outperf vs index 1m <= -0.1\ngini = 0.5\nsamples = 121\nvalue = [122, 71]"] ;
314 -> 478 ;
479 [label="ND/market cap <= 0.1\ngini = 0.2\nsamples = 5\nvalue = [1, 8]"] ;
478 -> 479 ;
480 [label="gini = 0.0\nsamples = 1\nvalue = [1, 0]"] ;
479 -> 480 ;
481 [label="gini = 0.0\nsamples = 4\nvalue = [0, 8]"] ;
479 -> 481 ;
482 [label="xEbit <= 11.3\ngini = 0.5\nsamples = 116\nvalue = [121, 63]"] ;
478 -> 482 ;
483 [label="gini = 0.0\nsamples = 7\nvalue = [15, 0]"] ;
482 -> 483 ;
484 [label="Margin vs peak <= -0.1\ngini = 0.5\nsamples = 109\nvalue = [106, 63]"] ;
482 -> 484 ;
485 [label="Index vs max <= -0.1\ngini = 0.5\nsamples = 32\nvalue = [23, 27]"] ;
484 -> 485 ;
486 [label="PE vs peak <= -0.2\ngini = 0.5\nsamples = 26\nvalue = [16, 26]"] ;
485 -> 486 ;
487 [label="outperf vs index 1m <= -0.0\ngini = 0.2\nsamples = 10\nvalue = [2, 14]"] ;
486 -> 487 ;
488 [label="gini = 0.0\nsamples = 1\nvalue = [1, 0]"] ;
487 -> 488 ;
489 [label="xSales vs peak <= -0.1\ngini = 0.1\nsamples = 9\nvalue = [1, 14]"] ;
487 -> 489 ;
490 [label="gini = 0.0\nsamples = 8\nvalue = [0, 14]"] ;
489 -> 490 ;
491 [label="gini = 0.0\nsamples = 1\nvalue = [1, 0]"] ;
489 -> 491 ;
492 [label="LT momentum <= 0.2\ngini = 0.5\nsamples = 16\nvalue = [14, 12]"] ;
486 -> 492 ;
493 [label="xSales <= 2.2\ngini = 0.4\nsamples = 10\nvalue = [12, 5]"] ;
492 -> 493 ;
494 [label="Margin vs peak <= -0.3\ngini = 0.2\nsamples = 8\nvalue = [11, 1]"] ;
493 -> 494 ;
495 [label="gini = 0.0\nsamples = 1\nvalue = [0, 1]"] ;
494 -> 495 ;
496 [label="gini = 0.0\nsamples = 7\nvalue = [11, 0]"] ;
494 -> 496 ;
497 [label="net income vs peak <= -0.3\ngini = 0.3\nsamples = 2\nvalue = [1, 4]"] ;
493 -> 497 ;
498 [label="gini = 0.0\nsamples = 1\nvalue = [1, 0]"] ;
497 -> 498 ;
499 [label="gini = 0.0\nsamples = 1\nvalue = [0, 4]"] ;
497 -> 499 ;
500 [label="outperf vs index 3m <= 0.0\ngini = 0.3\nsamples = 6\nvalue = [2, 7]"] ;
492 -> 500 ;
501 [label="gini = 0.0\nsamples = 4\nvalue = [0, 6]"] ;
500 -> 501 ;
502 [label="Margin vs peak <= -0.2\ngini = 0.4\nsamples = 2\nvalue = [2, 1]"] ;
500 -> 502 ;
503 [label="gini = 0.0\nsamples = 1\nvalue = [2, 0]"] ;
502 -> 503 ;
504 [label="gini = 0.0\nsamples = 1\nvalue = [0, 1]"] ;
502 -> 504 ;
505 [label="PE <= 15.8\ngini = 0.2\nsamples = 6\nvalue = [7, 1]"] ;
485 -> 505 ;
506 [label="gini = 0.0\nsamples = 1\nvalue = [0, 1]"] ;
505 -> 506 ;
507 [label="gini = 0.0\nsamples = 5\nvalue = [7, 0]"] ;
505 -> 507 ;
508 [label="xEbit <= 11.9\ngini = 0.4\nsamples = 77\nvalue = [83, 36]"] ;
484 -> 508 ;
509 [label="gini = 0.0\nsamples = 2\nvalue = [0, 3]"] ;
508 -> 509 ;
510 [label="outperf vs index 3m <= 0.0\ngini = 0.4\nsamples = 75\nvalue = [83, 33]"] ;
508 -> 510 ;
511 [label="ND/market cap <= 0.2\ngini = 0.5\nsamples = 54\nvalue = [51, 29]"] ;
510 -> 511 ;
512 [label="PE vs peak <= -0.1\ngini = 0.3\nsamples = 29\nvalue = [37, 10]"] ;
511 -> 512 ;
513 [label="PE <= 17.6\ngini = 0.5\nsamples = 13\nvalue = [14, 9]"] ;
512 -> 513 ;
514 [label="PE vs peak <= -0.7\ngini = 0.4\nsamples = 7\nvalue = [4, 8]"] ;
513 -> 514 ;
515 [label="xEbit vs peak <= -0.7\ngini = 0.5\nsamples = 2\nvalue = [3, 2]"] ;
514 -> 515 ;
516 [label="gini = 0.0\nsamples = 1\nvalue = [0, 2]"] ;
515 -> 516 ;
517 [label="gini = 0.0\nsamples = 1\nvalue = [3, 0]"] ;
515 -> 517 ;
518 [label="PE <= 17.2\ngini = 0.2\nsamples = 5\nvalue = [1, 6]"] ;
514 -> 518 ;
519 [label="gini = 0.0\nsamples = 3\nvalue = [0, 5]"] ;
518 -> 519 ;
520 [label="ST momentum <= 0.2\ngini = 0.5\nsamples = 2\nvalue = [1, 1]"] ;
518 -> 520 ;
521 [label="gini = 0.0\nsamples = 1\nvalue = [0, 1]"] ;
520 -> 521 ;
522 [label="gini = 0.0\nsamples = 1\nvalue = [1, 0]"] ;
520 -> 522 ;
523 [label="outperf vs index 3m <= -0.1\ngini = 0.2\nsamples = 6\nvalue = [10, 1]"] ;
513 -> 523 ;
524 [label="gini = 0.0\nsamples = 1\nvalue = [0, 1]"] ;
523 -> 524 ;
525 [label="gini = 0.0\nsamples = 5\nvalue = [10, 0]"] ;
523 -> 525 ;
526 [label="ND/market cap <= 0.2\ngini = 0.1\nsamples = 16\nvalue = [23, 1]"] ;
512 -> 526 ;
527 [label="gini = 0.0\nsamples = 12\nvalue = [18, 0]"] ;
526 -> 527 ;
528 [label="ST momentum <= 0.1\ngini = 0.3\nsamples = 4\nvalue = [5, 1]"] ;
526 -> 528 ;
529 [label="gini = 0.0\nsamples = 3\nvalue = [5, 0]"] ;
528 -> 529 ;
530 [label="gini = 0.0\nsamples = 1\nvalue = [0, 1]"] ;
528 -> 530 ;
531 [label="market cap vs peak <= -0.0\ngini = 0.5\nsamples = 25\nvalue = [14, 19]"] ;
511 -> 531 ;
532 [label="Index vs max <= -0.1\ngini = 0.5\nsamples = 19\nvalue = [14, 9]"] ;
531 -> 532 ;
533 [label="Index st momentum <= -0.1\ngini = 0.4\nsamples = 17\nvalue = [14, 6]"] ;
532 -> 533 ;
534 [label="net income vs peak <= -0.1\ngini = 0.4\nsamples = 4\nvalue = [1, 3]"] ;
533 -> 534 ;
535 [label="gini = 0.0\nsamples = 1\nvalue = [1, 0]"] ;
534 -> 535 ;
536 [label="gini = 0.0\nsamples = 3\nvalue = [0, 3]"] ;
534 -> 536 ;
537 [label="ND/market cap <= 0.5\ngini = 0.3\nsamples = 13\nvalue = [13, 3]"] ;
533 -> 537 ;
538 [label="gini = 0.0\nsamples = 7\nvalue = [8, 0]"] ;
537 -> 538 ;
539 [label="market cap vs peak <= -0.1\ngini = 0.5\nsamples = 6\nvalue = [5, 3]"] ;
537 -> 539 ;
540 [label="outperf vs index 1m <= 0.0\ngini = 0.4\nsamples = 4\nvalue = [1, 3]"] ;
539 -> 540 ;
541 [label="gini = 0.0\nsamples = 3\nvalue = [0, 3]"] ;
540 -> 541 ;
542 [label="gini = 0.0\nsamples = 1\nvalue = [1, 0]"] ;
540 -> 542 ;
543 [label="gini = 0.0\nsamples = 2\nvalue = [4, 0]"] ;
539 -> 543 ;
544 [label="gini = 0.0\nsamples = 2\nvalue = [0, 3]"] ;
532 -> 544 ;
545 [label="gini = 0.0\nsamples = 6\nvalue = [0, 10]"] ;
531 -> 545 ;
546 [label="ST momentum <= 0.2\ngini = 0.2\nsamples = 21\nvalue = [32, 4]"] ;
510 -> 546 ;
547 [label="market cap vs peak <= -0.1\ngini = 0.1\nsamples = 18\nvalue = [31, 2]"] ;
546 -> 547 ;
548 [label="market cap vs peak <= -0.1\ngini = 0.4\nsamples = 5\nvalue = [6, 2]"] ;
547 -> 548 ;
549 [label="gini = 0.0\nsamples = 3\nvalue = [6, 0]"] ;
548 -> 549 ;
550 [label="gini = 0.0\nsamples = 2\nvalue = [0, 2]"] ;
548 -> 550 ;
551 [label="gini = 0.0\nsamples = 13\nvalue = [25, 0]"] ;
547 -> 551 ;
552 [label="xEbit <= 13.5\ngini = 0.4\nsamples = 3\nvalue = [1, 2]"] ;
546 -> 552 ;
553 [label="gini = 0.0\nsamples = 1\nvalue = [1, 0]"] ;
552 -> 553 ;
554 [label="gini = 0.0\nsamples = 2\nvalue = [0, 2]"] ;
552 -> 554 ;
555 [label="ST momentum <= 0.3\ngini = 0.5\nsamples = 202\nvalue = [185, 122]"] ;
313 -> 555 ;
556 [label="xSales vs peak <= -0.3\ngini = 0.5\nsamples = 193\nvalue = [172, 121]"] ;
555 -> 556 ;
557 [label="xEbit <= 14.2\ngini = 0.3\nsamples = 20\nvalue = [25, 5]"] ;
556 -> 557 ;
558 [label="xSales vs peak <= -0.8\ngini = 0.1\nsamples = 13\nvalue = [17, 1]"] ;
557 -> 558 ;
559 [label="xSales <= 1.7\ngini = 0.5\nsamples = 2\nvalue = [1, 1]"] ;
558 -> 559 ;
560 [label="gini = 0.0\nsamples = 1\nvalue = [1, 0]"] ;
559 -> 560 ;
561 [label="gini = 0.0\nsamples = 1\nvalue = [0, 1]"] ;
559 -> 561 ;
562 [label="gini = 0.0\nsamples = 11\nvalue = [16, 0]"] ;
558 -> 562 ;
563 [label="PE <= 11.1\ngini = 0.4\nsamples = 7\nvalue = [8, 4]"] ;
557 -> 563 ;
564 [label="gini = 0.0\nsamples = 2\nvalue = [0, 2]"] ;
563 -> 564 ;
565 [label="market cap vs peak <= -0.2\ngini = 0.3\nsamples = 5\nvalue = [8, 2]"] ;
563 -> 565 ;
566 [label="ND/market cap <= 2.5\ngini = 0.4\nsamples = 2\nvalue = [1, 2]"] ;
565 -> 566 ;
567 [label="gini = 0.0\nsamples = 1\nvalue = [0, 2]"] ;
566 -> 567 ;
568 [label="gini = 0.0\nsamples = 1\nvalue = [1, 0]"] ;
566 -> 568 ;
569 [label="gini = 0.0\nsamples = 3\nvalue = [7, 0]"] ;
565 -> 569 ;
570 [label="xSales vs peak <= -0.3\ngini = 0.5\nsamples = 173\nvalue = [147, 116]"] ;
556 -> 570 ;
571 [label="gini = 0.0\nsamples = 2\nvalue = [0, 4]"] ;
570 -> 571 ;
572 [label="ST momentum <= 0.2\ngini = 0.5\nsamples = 171\nvalue = [147, 112]"] ;
570 -> 572 ;
573 [label="Index st momentum <= -0.1\ngini = 0.5\nsamples = 136\nvalue = [128, 84]"] ;
572 -> 573 ;
574 [label="xSales <= 3.1\ngini = 0.4\nsamples = 59\nvalue = [67, 30]"] ;
573 -> 574 ;
575 [label="Margin vs peak <= -0.1\ngini = 0.3\nsamples = 41\nvalue = [56, 13]"] ;
574 -> 575 ;
576 [label="outperf vs index 3m <= 0.0\ngini = 0.1\nsamples = 19\nvalue = [28, 1]"] ;
575 -> 576 ;
577 [label="gini = 0.0\nsamples = 1\nvalue = [0, 1]"] ;
576 -> 577 ;
578 [label="gini = 0.0\nsamples = 18\nvalue = [28, 0]"] ;
576 -> 578 ;
579 [label="xEbit vs peak <= -0.1\ngini = 0.4\nsamples = 22\nvalue = [28, 12]"] ;
575 -> 579 ;
580 [label="PE <= 11.0\ngini = 0.5\nsamples = 19\nvalue = [21, 12]"] ;
579 -> 580 ;
581 [label="xSales vs peak <= -0.2\ngini = 0.3\nsamples = 10\nvalue = [13, 3]"] ;
580 -> 581 ;
582 [label="gini = 0.0\nsamples = 2\nvalue = [0, 3]"] ;
581 -> 582 ;
583 [label="gini = 0.0\nsamples = 8\nvalue = [13, 0]"] ;
581 -> 583 ;
584 [label="LT momentum <= -0.1\ngini = 0.5\nsamples = 9\nvalue = [8, 9]"] ;
580 -> 584 ;
585 [label="market cap vs peak <= -0.0\ngini = 0.4\nsamples = 4\nvalue = [6, 2]"] ;
584 -> 585 ;
586 [label="gini = 0.0\nsamples = 2\nvalue = [5, 0]"] ;
585 -> 586 ;
587 [label="xSales <= 2.0\ngini = 0.4\nsamples = 2\nvalue = [1, 2]"] ;
585 -> 587 ;
588 [label="gini = 0.0\nsamples = 1\nvalue = [0, 2]"] ;
587 -> 588 ;
589 [label="gini = 0.0\nsamples = 1\nvalue = [1, 0]"] ;
587 -> 589 ;
590 [label="ND/market cap <= 0.1\ngini = 0.3\nsamples = 5\nvalue = [2, 7]"] ;
584 -> 590 ;
591 [label="ND/market cap <= 0.1\ngini = 0.4\nsamples = 2\nvalue = [2, 1]"] ;
590 -> 591 ;
592 [label="gini = 0.0\nsamples = 1\nvalue = [0, 1]"] ;
591 -> 592 ;
593 [label="gini = 0.0\nsamples = 1\nvalue = [2, 0]"] ;
591 -> 593 ;
594 [label="gini = 0.0\nsamples = 3\nvalue = [0, 6]"] ;
590 -> 594 ;
595 [label="gini = 0.0\nsamples = 3\nvalue = [7, 0]"] ;
579 -> 595 ;
596 [label="market cap vs peak <= -0.2\ngini = 0.5\nsamples = 18\nvalue = [11, 17]"] ;
574 -> 596 ;
597 [label="gini = 0.0\nsamples = 2\nvalue = [4, 0]"] ;
596 -> 597 ;
598 [label="xEbit <= 53.2\ngini = 0.4\nsamples = 16\nvalue = [7, 17]"] ;
596 -> 598 ;
599 [label="PE <= 11.9\ngini = 0.2\nsamples = 11\nvalue = [2, 14]"] ;
598 -> 599 ;
600 [label="market cap vs peak <= -0.1\ngini = 0.1\nsamples = 10\nvalue = [1, 14]"] ;
599 -> 600 ;
601 [label="gini = 0.0\nsamples = 8\nvalue = [0, 12]"] ;
600 -> 601 ;
602 [label="ND/market cap <= 5.7\ngini = 0.4\nsamples = 2\nvalue = [1, 2]"] ;
600 -> 602 ;
603 [label="gini = 0.0\nsamples = 1\nvalue = [0, 2]"] ;
602 -> 603 ;
604 [label="gini = 0.0\nsamples = 1\nvalue = [1, 0]"] ;
602 -> 604 ;
605 [label="gini = 0.0\nsamples = 1\nvalue = [1, 0]"] ;
599 -> 605 ;
606 [label="PE vs peak <= -0.9\ngini = 0.5\nsamples = 5\nvalue = [5, 3]"] ;
598 -> 606 ;
607 [label="gini = 0.0\nsamples = 2\nvalue = [4, 0]"] ;
606 -> 607 ;
608 [label="xEbit vs peak <= -0.2\ngini = 0.4\nsamples = 3\nvalue = [1, 3]"] ;
606 -> 608 ;
609 [label="gini = 0.0\nsamples = 1\nvalue = [1, 0]"] ;
608 -> 609 ;
610 [label="gini = 0.0\nsamples = 2\nvalue = [0, 3]"] ;
608 -> 610 ;
611 [label="ebit vs peak <= -0.1\ngini = 0.5\nsamples = 77\nvalue = [61, 54]"] ;
573 -> 611 ;
612 [label="market cap vs peak <= -0.0\ngini = 0.3\nsamples = 27\nvalue = [29, 7]"] ;
611 -> 612 ;
613 [label="net income vs peak <= -0.4\ngini = 0.4\nsamples = 16\nvalue = [14, 7]"] ;
612 -> 613 ;
614 [label="Index st momentum <= -0.0\ngini = 0.5\nsamples = 7\nvalue = [3, 5]"] ;
613 -> 614 ;
615 [label="gini = 0.0\nsamples = 2\nvalue = [2, 0]"] ;
614 -> 615 ;
616 [label="outperf vs index 1m <= 0.0\ngini = 0.3\nsamples = 5\nvalue = [1, 5]"] ;
614 -> 616 ;
617 [label="gini = 0.0\nsamples = 4\nvalue = [0, 5]"] ;
616 -> 617 ;
618 [label="gini = 0.0\nsamples = 1\nvalue = [1, 0]"] ;
616 -> 618 ;
619 [label="xSales <= 2.1\ngini = 0.3\nsamples = 9\nvalue = [11, 2]"] ;
613 -> 619 ;
620 [label="gini = 0.0\nsamples = 5\nvalue = [8, 0]"] ;
619 -> 620 ;
621 [label="ebit vs peak <= -0.2\ngini = 0.5\nsamples = 4\nvalue = [3, 2]"] ;
619 -> 621 ;
622 [label="LT momentum <= 0.2\ngini = 0.4\nsamples = 3\nvalue = [1, 2]"] ;
621 -> 622 ;
623 [label="gini = 0.0\nsamples = 2\nvalue = [0, 2]"] ;
622 -> 623 ;
624 [label="gini = 0.0\nsamples = 1\nvalue = [1, 0]"] ;
622 -> 624 ;
625 [label="gini = 0.0\nsamples = 1\nvalue = [2, 0]"] ;
621 -> 625 ;
626 [label="gini = 0.0\nsamples = 11\nvalue = [15, 0]"] ;
612 -> 626 ;
627 [label="ND/market cap <= 0.2\ngini = 0.5\nsamples = 50\nvalue = [32, 47]"] ;
611 -> 627 ;
628 [label="outperf vs index 1m <= 0.0\ngini = 0.2\nsamples = 16\nvalue = [2, 20]"] ;
627 -> 628 ;
629 [label="ebit vs peak <= -0.0\ngini = 0.4\nsamples = 5\nvalue = [2, 5]"] ;
628 -> 629 ;
630 [label="gini = 0.0\nsamples = 2\nvalue = [0, 4]"] ;
629 -> 630 ;
631 [label="Index st momentum <= -0.0\ngini = 0.4\nsamples = 3\nvalue = [2, 1]"] ;
629 -> 631 ;
632 [label="gini = 0.0\nsamples = 1\nvalue = [0, 1]"] ;
631 -> 632 ;
633 [label="gini = 0.0\nsamples = 2\nvalue = [2, 0]"] ;
631 -> 633 ;
634 [label="gini = 0.0\nsamples = 11\nvalue = [0, 15]"] ;
628 -> 634 ;
635 [label="LT momentum <= -0.1\ngini = 0.5\nsamples = 34\nvalue = [30, 27]"] ;
627 -> 635 ;
636 [label="ebit vs peak <= -0.1\ngini = 0.5\nsamples = 20\nvalue = [12, 23]"] ;
635 -> 636 ;
637 [label="gini = 0.0\nsamples = 4\nvalue = [0, 8]"] ;
636 -> 637 ;
638 [label="market cap vs peak <= -0.2\ngini = 0.5\nsamples = 16\nvalue = [12, 15]"] ;
636 -> 638 ;
639 [label="gini = 0.0\nsamples = 2\nvalue = [0, 5]"] ;
638 -> 639 ;
640 [label="Index st momentum <= -0.1\ngini = 0.5\nsamples = 14\nvalue = [12, 10]"] ;
638 -> 640 ;
641 [label="xEbit vs peak <= -0.2\ngini = 0.4\nsamples = 8\nvalue = [3, 9]"] ;
640 -> 641 ;
642 [label="xSales vs peak <= -0.2\ngini = 0.2\nsamples = 7\nvalue = [1, 9]"] ;
641 -> 642 ;
643 [label="ND/market cap <= 8.0\ngini = 0.5\nsamples = 2\nvalue = [1, 1]"] ;
642 -> 643 ;
644 [label="gini = 0.0\nsamples = 1\nvalue = [1, 0]"] ;
643 -> 644 ;
645 [label="gini = 0.0\nsamples = 1\nvalue = [0, 1]"] ;
643 -> 645 ;
646 [label="gini = 0.0\nsamples = 5\nvalue = [0, 8]"] ;
642 -> 646 ;
647 [label="gini = 0.0\nsamples = 1\nvalue = [2, 0]"] ;
641 -> 647 ;
648 [label="Index vs max <= -0.2\ngini = 0.2\nsamples = 6\nvalue = [9, 1]"] ;
640 -> 648 ;
649 [label="ebit vs peak <= -0.0\ngini = 0.5\nsamples = 2\nvalue = [1, 1]"] ;
648 -> 649 ;
650 [label="gini = 0.0\nsamples = 1\nvalue = [1, 0]"] ;
649 -> 650 ;
651 [label="gini = 0.0\nsamples = 1\nvalue = [0, 1]"] ;
649 -> 651 ;
652 [label="gini = 0.0\nsamples = 4\nvalue = [8, 0]"] ;
648 -> 652 ;
653 [label="xSales vs peak <= -0.0\ngini = 0.3\nsamples = 14\nvalue = [18, 4]"] ;
635 -> 653 ;
654 [label="xSales <= 1.6\ngini = 0.5\nsamples = 5\nvalue = [5, 3]"] ;
653 -> 654 ;
655 [label="PE vs peak <= -0.4\ngini = 0.4\nsamples = 3\nvalue = [1, 3]"] ;
654 -> 655 ;
656 [label="gini = 0.0\nsamples = 1\nvalue = [1, 0]"] ;
655 -> 656 ;
657 [label="gini = 0.0\nsamples = 2\nvalue = [0, 3]"] ;
655 -> 657 ;
658 [label="gini = 0.0\nsamples = 2\nvalue = [4, 0]"] ;
654 -> 658 ;
659 [label="outperf vs index 3m <= 0.1\ngini = 0.1\nsamples = 9\nvalue = [13, 1]"] ;
653 -> 659 ;
660 [label="outperf vs index 3m <= 0.1\ngini = 0.3\nsamples = 3\nvalue = [5, 1]"] ;
659 -> 660 ;
661 [label="gini = 0.0\nsamples = 2\nvalue = [5, 0]"] ;
660 -> 661 ;
662 [label="gini = 0.0\nsamples = 1\nvalue = [0, 1]"] ;
660 -> 662 ;
663 [label="gini = 0.0\nsamples = 6\nvalue = [8, 0]"] ;
659 -> 663 ;
664 [label="xSales <= 0.9\ngini = 0.5\nsamples = 35\nvalue = [19, 28]"] ;
572 -> 664 ;
665 [label="gini = 0.0\nsamples = 4\nvalue = [5, 0]"] ;
664 -> 665 ;
666 [label="PE <= 17.5\ngini = 0.4\nsamples = 31\nvalue = [14, 28]"] ;
664 -> 666 ;
667 [label="outperf vs index 3m <= 0.1\ngini = 0.4\nsamples = 25\nvalue = [9, 27]"] ;
666 -> 667 ;
668 [label="ND/market cap <= 0.1\ngini = 0.5\nsamples = 11\nvalue = [7, 6]"] ;
667 -> 668 ;
669 [label="gini = 0.0\nsamples = 2\nvalue = [0, 2]"] ;
668 -> 669 ;
670 [label="xEbit <= 11.4\ngini = 0.5\nsamples = 9\nvalue = [7, 4]"] ;
668 -> 670 ;
671 [label="outperf vs index 1m <= 0.0\ngini = 0.4\nsamples = 5\nvalue = [2, 4]"] ;
670 -> 671 ;
672 [label="gini = 0.0\nsamples = 3\nvalue = [0, 4]"] ;
671 -> 672 ;
673 [label="gini = 0.0\nsamples = 2\nvalue = [2, 0]"] ;
671 -> 673 ;
674 [label="gini = 0.0\nsamples = 4\nvalue = [5, 0]"] ;
670 -> 674 ;
675 [label="xEbit <= 23.2\ngini = 0.2\nsamples = 14\nvalue = [2, 21]"] ;
667 -> 675 ;
676 [label="xSales vs peak <= -0.0\ngini = 0.1\nsamples = 13\nvalue = [1, 21]"] ;
675 -> 676 ;
677 [label="gini = 0.0\nsamples = 9\nvalue = [0, 17]"] ;
676 -> 677 ;
678 [label="xEbit vs peak <= -0.2\ngini = 0.3\nsamples = 4\nvalue = [1, 4]"] ;
676 -> 678 ;
679 [label="gini = 0.0\nsamples = 3\nvalue = [0, 4]"] ;
678 -> 679 ;
680 [label="gini = 0.0\nsamples = 1\nvalue = [1, 0]"] ;
678 -> 680 ;
681 [label="gini = 0.0\nsamples = 1\nvalue = [1, 0]"] ;
675 -> 681 ;
682 [label="market cap vs peak <= -0.1\ngini = 0.3\nsamples = 6\nvalue = [5, 1]"] ;
666 -> 682 ;
683 [label="gini = 0.0\nsamples = 5\nvalue = [5, 0]"] ;
682 -> 683 ;
684 [label="gini = 0.0\nsamples = 1\nvalue = [0, 1]"] ;
682 -> 684 ;
685 [label="Margin vs peak <= -0.1\ngini = 0.1\nsamples = 9\nvalue = [13, 1]"] ;
555 -> 685 ;
686 [label="gini = 0.0\nsamples = 6\nvalue = [9, 0]"] ;
685 -> 686 ;
687 [label="ND/market cap <= 0.6\ngini = 0.3\nsamples = 3\nvalue = [4, 1]"] ;
685 -> 687 ;
688 [label="gini = 0.0\nsamples = 2\nvalue = [4, 0]"] ;
687 -> 688 ;
689 [label="gini = 0.0\nsamples = 1\nvalue = [0, 1]"] ;
687 -> 689 ;
690 [label="market cap vs peak <= -0.1\ngini = 0.2\nsamples = 52\nvalue = [70, 10]"] ;
312 -> 690 ;
691 [label="ST momentum <= 0.2\ngini = 0.5\nsamples = 12\nvalue = [11, 8]"] ;
690 -> 691 ;
692 [label="market cap vs peak <= -0.2\ngini = 0.5\nsamples = 10\nvalue = [5, 8]"] ;
691 -> 692 ;
693 [label="gini = 0.0\nsamples = 3\nvalue = [4, 0]"] ;
692 -> 693 ;
694 [label="outperf vs index 3m <= 0.1\ngini = 0.2\nsamples = 7\nvalue = [1, 8]"] ;
692 -> 694 ;
695 [label="gini = 0.0\nsamples = 6\nvalue = [0, 8]"] ;
694 -> 695 ;
696 [label="gini = 0.0\nsamples = 1\nvalue = [1, 0]"] ;
694 -> 696 ;
697 [label="gini = 0.0\nsamples = 2\nvalue = [6, 0]"] ;
691 -> 697 ;
698 [label="PE <= 16.4\ngini = 0.1\nsamples = 40\nvalue = [59, 2]"] ;
690 -> 698 ;
699 [label="ND/market cap <= 0.1\ngini = 0.0\nsamples = 35\nvalue = [54, 1]"] ;
698 -> 699 ;
700 [label="xSales vs peak <= -0.2\ngini = 0.3\nsamples = 3\nvalue = [4, 1]"] ;
699 -> 700 ;
701 [label="gini = 0.0\nsamples = 1\nvalue = [0, 1]"] ;
700 -> 701 ;
702 [label="gini = 0.0\nsamples = 2\nvalue = [4, 0]"] ;
700 -> 702 ;
703 [label="gini = 0.0\nsamples = 32\nvalue = [50, 0]"] ;
699 -> 703 ;
704 [label="Margin vs peak <= -0.0\ngini = 0.3\nsamples = 5\nvalue = [5, 1]"] ;
698 -> 704 ;
705 [label="xSales vs peak <= -0.1\ngini = 0.4\nsamples = 3\nvalue = [2, 1]"] ;
704 -> 705 ;
706 [label="gini = 0.0\nsamples = 2\nvalue = [2, 0]"] ;
705 -> 706 ;
707 [label="gini = 0.0\nsamples = 1\nvalue = [0, 1]"] ;
705 -> 707 ;
708 [label="gini = 0.0\nsamples = 2\nvalue = [3, 0]"] ;
704 -> 708 ;
709 [label="Margin vs peak <= -0.1\ngini = 0.5\nsamples = 56\nvalue = [52, 48]"] ;
311 -> 709 ;
710 [label="outperf vs index 3m <= 0.0\ngini = 0.4\nsamples = 35\nvalue = [43, 21]"] ;
709 -> 710 ;
711 [label="gini = 0.0\nsamples = 3\nvalue = [0, 7]"] ;
710 -> 711 ;
712 [label="LT momentum <= 0.3\ngini = 0.4\nsamples = 32\nvalue = [43, 14]"] ;
710 -> 712 ;
713 [label="xEbit <= 118.2\ngini = 0.3\nsamples = 30\nvalue = [43, 9]"] ;
712 -> 713 ;
714 [label="ND/market cap <= 0.1\ngini = 0.2\nsamples = 27\nvalue = [42, 4]"] ;
713 -> 714 ;
715 [label="gini = 0.0\nsamples = 1\nvalue = [0, 3]"] ;
714 -> 715 ;
716 [label="xSales vs peak <= -0.0\ngini = 0.0\nsamples = 26\nvalue = [42, 1]"] ;
714 -> 716 ;
717 [label="gini = 0.0\nsamples = 20\nvalue = [35, 0]"] ;
716 -> 717 ;
718 [label="LT momentum <= -0.1\ngini = 0.2\nsamples = 6\nvalue = [7, 1]"] ;
716 -> 718 ;
719 [label="gini = 0.0\nsamples = 1\nvalue = [0, 1]"] ;
718 -> 719 ;
720 [label="gini = 0.0\nsamples = 5\nvalue = [7, 0]"] ;
718 -> 720 ;
721 [label="LT momentum <= 0.1\ngini = 0.3\nsamples = 3\nvalue = [1, 5]"] ;
713 -> 721 ;
722 [label="gini = 0.0\nsamples = 1\nvalue = [1, 0]"] ;
721 -> 722 ;
723 [label="gini = 0.0\nsamples = 2\nvalue = [0, 5]"] ;
721 -> 723 ;
724 [label="gini = 0.0\nsamples = 2\nvalue = [0, 5]"] ;
712 -> 724 ;
725 [label="Index st momentum <= -0.2\ngini = 0.4\nsamples = 21\nvalue = [9, 27]"] ;
709 -> 725 ;
726 [label="gini = 0.0\nsamples = 1\nvalue = [4, 0]"] ;
725 -> 726 ;
727 [label="PE vs peak <= -0.3\ngini = 0.3\nsamples = 20\nvalue = [5, 27]"] ;
725 -> 727 ;
728 [label="gini = 0.0\nsamples = 10\nvalue = [0, 16]"] ;
727 -> 728 ;
729 [label="ST momentum <= 0.0\ngini = 0.4\nsamples = 10\nvalue = [5, 11]"] ;
727 -> 729 ;
730 [label="gini = 0.0\nsamples = 3\nvalue = [4, 0]"] ;
729 -> 730 ;
731 [label="PE vs peak <= -0.2\ngini = 0.2\nsamples = 7\nvalue = [1, 11]"] ;
729 -> 731 ;
732 [label="gini = 0.0\nsamples = 1\nvalue = [1, 0]"] ;
731 -> 732 ;
733 [label="gini = 0.0\nsamples = 6\nvalue = [0, 11]"] ;
731 -> 733 ;
734 [label="outperf vs index 3m <= 0.0\ngini = 0.4\nsamples = 744\nvalue = [802, 353]"] ;
0 -> 734 [labeldistance=2.5, labelangle=-45, headlabel="False"] ;
735 [label="xSales vs peak <= -0.2\ngini = 0.4\nsamples = 424\nvalue = [482, 170]"] ;
734 -> 735 ;
736 [label="LT momentum <= 0.5\ngini = 0.5\nsamples = 76\nvalue = [66, 46]"] ;
735 -> 736 ;
737 [label="net income vs peak <= -0.7\ngini = 0.5\nsamples = 69\nvalue = [53, 46]"] ;
736 -> 737 ;
738 [label="Index vs max <= -0.1\ngini = 0.4\nsamples = 26\nvalue = [25, 9]"] ;
737 -> 738 ;
739 [label="PE vs peak <= -0.1\ngini = 0.2\nsamples = 22\nvalue = [25, 4]"] ;
738 -> 739 ;
740 [label="xSales vs peak <= -0.7\ngini = 0.1\nsamples = 20\nvalue = [24, 2]"] ;
739 -> 740 ;
741 [label="xSales <= 2.3\ngini = 0.5\nsamples = 2\nvalue = [1, 1]"] ;
740 -> 741 ;
742 [label="gini = 0.0\nsamples = 1\nvalue = [1, 0]"] ;
741 -> 742 ;
743 [label="gini = 0.0\nsamples = 1\nvalue = [0, 1]"] ;
741 -> 743 ;
744 [label="ST momentum <= -0.2\ngini = 0.1\nsamples = 18\nvalue = [23, 1]"] ;
740 -> 744 ;
745 [label="market cap vs peak <= -0.4\ngini = 0.4\nsamples = 3\nvalue = [2, 1]"] ;
744 -> 745 ;
746 [label="gini = 0.0\nsamples = 1\nvalue = [0, 1]"] ;
745 -> 746 ;
747 [label="gini = 0.0\nsamples = 2\nvalue = [2, 0]"] ;
745 -> 747 ;
748 [label="gini = 0.0\nsamples = 15\nvalue = [21, 0]"] ;
744 -> 748 ;
749 [label="outperf vs index 3m <= -0.0\ngini = 0.4\nsamples = 2\nvalue = [1, 2]"] ;
739 -> 749 ;
750 [label="gini = 0.0\nsamples = 1\nvalue = [1, 0]"] ;
749 -> 750 ;
751 [label="gini = 0.0\nsamples = 1\nvalue = [0, 2]"] ;
749 -> 751 ;
752 [label="gini = 0.0\nsamples = 4\nvalue = [0, 5]"] ;
738 -> 752 ;
753 [label="net income vs peak <= -0.2\ngini = 0.5\nsamples = 43\nvalue = [28, 37]"] ;
737 -> 753 ;
754 [label="market cap vs peak <= -0.3\ngini = 0.4\nsamples = 25\nvalue = [12, 27]"] ;
753 -> 754 ;
755 [label="PE vs peak <= -0.3\ngini = 0.4\nsamples = 5\nvalue = [6, 3]"] ;
754 -> 755 ;
756 [label="gini = 0.0\nsamples = 2\nvalue = [0, 3]"] ;
755 -> 756 ;
757 [label="gini = 0.0\nsamples = 3\nvalue = [6, 0]"] ;
755 -> 757 ;
758 [label="LT momentum <= 0.2\ngini = 0.3\nsamples = 20\nvalue = [6, 24]"] ;
754 -> 758 ;
759 [label="xEbit <= 16.7\ngini = 0.4\nsamples = 9\nvalue = [5, 10]"] ;
758 -> 759 ;
760 [label="gini = 0.0\nsamples = 4\nvalue = [0, 9]"] ;
759 -> 760 ;
761 [label="PE vs peak <= -0.1\ngini = 0.3\nsamples = 5\nvalue = [5, 1]"] ;
759 -> 761 ;
762 [label="gini = 0.0\nsamples = 4\nvalue = [5, 0]"] ;
761 -> 762 ;
763 [label="gini = 0.0\nsamples = 1\nvalue = [0, 1]"] ;
761 -> 763 ;
764 [label="Index vs max <= -0.1\ngini = 0.1\nsamples = 11\nvalue = [1, 14]"] ;
758 -> 764 ;
765 [label="gini = 0.0\nsamples = 8\nvalue = [0, 12]"] ;
764 -> 765 ;
766 [label="ND/market cap <= 0.0\ngini = 0.4\nsamples = 3\nvalue = [1, 2]"] ;
764 -> 766 ;
767 [label="gini = 0.0\nsamples = 1\nvalue = [1, 0]"] ;
766 -> 767 ;
768 [label="gini = 0.0\nsamples = 2\nvalue = [0, 2]"] ;
766 -> 768 ;
769 [label="xSales <= 5.1\ngini = 0.5\nsamples = 18\nvalue = [16, 10]"] ;
753 -> 769 ;
770 [label="ND/market cap <= 0.0\ngini = 0.4\nsamples = 16\nvalue = [16, 7]"] ;
769 -> 770 ;
771 [label="gini = 0.0\nsamples = 6\nvalue = [8, 0]"] ;
770 -> 771 ;
772 [label="outperf vs index 1m <= -0.0\ngini = 0.5\nsamples = 10\nvalue = [8, 7]"] ;
770 -> 772 ;
773 [label="gini = 0.0\nsamples = 6\nvalue = [7, 0]"] ;
772 -> 773 ;
774 [label="outperf vs index 3m <= -0.0\ngini = 0.2\nsamples = 4\nvalue = [1, 7]"] ;
772 -> 774 ;
775 [label="gini = 0.0\nsamples = 1\nvalue = [1, 0]"] ;
774 -> 775 ;
776 [label="gini = 0.0\nsamples = 3\nvalue = [0, 7]"] ;
774 -> 776 ;
777 [label="gini = 0.0\nsamples = 2\nvalue = [0, 3]"] ;
769 -> 777 ;
778 [label="gini = 0.0\nsamples = 7\nvalue = [13, 0]"] ;
736 -> 778 ;
779 [label="outperf vs index 1m <= 0.1\ngini = 0.4\nsamples = 348\nvalue = [416, 124]"] ;
735 -> 779 ;
780 [label="net income vs peak <= -0.0\ngini = 0.3\nsamples = 341\nvalue = [413, 118]"] ;
779 -> 780 ;
781 [label="LT momentum <= 0.4\ngini = 0.4\nsamples = 200\nvalue = [222, 84]"] ;
780 -> 781 ;
782 [label="market cap vs peak <= -0.2\ngini = 0.4\nsamples = 195\nvalue = [221, 78]"] ;
781 -> 782 ;
783 [label="LT momentum <= -0.4\ngini = 0.5\nsamples = 11\nvalue = [7, 11]"] ;
782 -> 783 ;
784 [label="gini = 0.0\nsamples = 2\nvalue = [3, 0]"] ;
783 -> 784 ;
785 [label="outperf vs index 3m <= 0.0\ngini = 0.4\nsamples = 9\nvalue = [4, 11]"] ;
783 -> 785 ;
786 [label="xEbit vs peak <= -0.0\ngini = 0.2\nsamples = 7\nvalue = [1, 11]"] ;
785 -> 786 ;
787 [label="gini = 0.0\nsamples = 6\nvalue = [0, 11]"] ;
786 -> 787 ;
788 [label="gini = 0.0\nsamples = 1\nvalue = [1, 0]"] ;
786 -> 788 ;
789 [label="gini = 0.0\nsamples = 2\nvalue = [3, 0]"] ;
785 -> 789 ;
790 [label="xSales vs peak <= -0.1\ngini = 0.4\nsamples = 184\nvalue = [214, 67]"] ;
782 -> 790 ;
791 [label="Index st momentum <= -0.1\ngini = 0.4\nsamples = 104\nvalue = [112, 48]"] ;
790 -> 791 ;
792 [label="PE <= 21.9\ngini = 0.5\nsamples = 11\nvalue = [8, 12]"] ;
791 -> 792 ;
793 [label="xEbit vs peak <= -0.2\ngini = 0.4\nsamples = 7\nvalue = [8, 3]"] ;
792 -> 793 ;
794 [label="outperf vs index 3m <= -0.1\ngini = 0.4\nsamples = 3\nvalue = [1, 3]"] ;
793 -> 794 ;
795 [label="gini = 0.0\nsamples = 1\nvalue = [1, 0]"] ;
794 -> 795 ;
796 [label="gini = 0.0\nsamples = 2\nvalue = [0, 3]"] ;
794 -> 796 ;
797 [label="gini = 0.0\nsamples = 4\nvalue = [7, 0]"] ;
793 -> 797 ;
798 [label="gini = 0.0\nsamples = 4\nvalue = [0, 9]"] ;
792 -> 798 ;
799 [label="xSales <= 0.4\ngini = 0.4\nsamples = 93\nvalue = [104, 36]"] ;
791 -> 799 ;
800 [label="gini = 0.0\nsamples = 1\nvalue = [0, 3]"] ;
799 -> 800 ;
801 [label="ND/market cap <= 0.2\ngini = 0.4\nsamples = 92\nvalue = [104, 33]"] ;
799 -> 801 ;
802 [label="outperf vs index 1m <= -0.1\ngini = 0.4\nsamples = 56\nvalue = [52, 27]"] ;
801 -> 802 ;
803 [label="gini = 0.0\nsamples = 7\nvalue = [12, 0]"] ;
802 -> 803 ;
804 [label="PE <= 22.7\ngini = 0.5\nsamples = 49\nvalue = [40, 27]"] ;
802 -> 804 ;
805 [label="LT momentum <= 0.4\ngini = 0.4\nsamples = 14\nvalue = [4, 12]"] ;
804 -> 805 ;
806 [label="PE <= 19.8\ngini = 0.3\nsamples = 13\nvalue = [3, 12]"] ;
805 -> 806 ;
807 [label="gini = 0.0\nsamples = 2\nvalue = [2, 0]"] ;
806 -> 807 ;
808 [label="Index vs max <= -0.2\ngini = 0.1\nsamples = 11\nvalue = [1, 12]"] ;
806 -> 808 ;
809 [label="ND/market cap <= 0.1\ngini = 0.4\nsamples = 2\nvalue = [1, 2]"] ;
808 -> 809 ;
810 [label="gini = 0.0\nsamples = 1\nvalue = [1, 0]"] ;
809 -> 810 ;
811 [label="gini = 0.0\nsamples = 1\nvalue = [0, 2]"] ;
809 -> 811 ;
812 [label="gini = 0.0\nsamples = 9\nvalue = [0, 10]"] ;
808 -> 812 ;
813 [label="gini = 0.0\nsamples = 1\nvalue = [1, 0]"] ;
805 -> 813 ;
814 [label="ST momentum <= -0.1\ngini = 0.4\nsamples = 35\nvalue = [36, 15]"] ;
804 -> 814 ;
815 [label="gini = 0.0\nsamples = 2\nvalue = [0, 4]"] ;
814 -> 815 ;
816 [label="market cap vs peak <= -0.0\ngini = 0.4\nsamples = 33\nvalue = [36, 11]"] ;
814 -> 816 ;
817 [label="Margin vs peak <= -0.0\ngini = 0.3\nsamples = 32\nvalue = [36, 9]"] ;
816 -> 817 ;
818 [label="net income vs peak <= -0.3\ngini = 0.2\nsamples = 27\nvalue = [32, 5]"] ;
817 -> 818 ;
819 [label="gini = 0.0\nsamples = 14\nvalue = [20, 0]"] ;
818 -> 819 ;
820 [label="ST momentum <= 0.2\ngini = 0.4\nsamples = 13\nvalue = [12, 5]"] ;
818 -> 820 ;
821 [label="gini = 0.0\nsamples = 2\nvalue = [0, 3]"] ;
820 -> 821 ;
822 [label="xSales <= 0.7\ngini = 0.2\nsamples = 11\nvalue = [12, 2]"] ;
820 -> 822 ;
823 [label="ND/market cap <= -0.3\ngini = 0.4\nsamples = 2\nvalue = [1, 2]"] ;
822 -> 823 ;
824 [label="gini = 0.0\nsamples = 1\nvalue = [1, 0]"] ;
823 -> 824 ;
825 [label="gini = 0.0\nsamples = 1\nvalue = [0, 2]"] ;
823 -> 825 ;
826 [label="gini = 0.0\nsamples = 9\nvalue = [11, 0]"] ;
822 -> 826 ;
827 [label="outperf vs index 1m <= -0.0\ngini = 0.5\nsamples = 5\nvalue = [4, 4]"] ;
817 -> 827 ;
828 [label="gini = 0.0\nsamples = 1\nvalue = [0, 3]"] ;
827 -> 828 ;
829 [label="xSales <= 3.5\ngini = 0.3\nsamples = 4\nvalue = [4, 1]"] ;
827 -> 829 ;
830 [label="gini = 0.0\nsamples = 1\nvalue = [0, 1]"] ;
829 -> 830 ;
831 [label="gini = 0.0\nsamples = 3\nvalue = [4, 0]"] ;
829 -> 831 ;
832 [label="gini = 0.0\nsamples = 1\nvalue = [0, 2]"] ;
816 -> 832 ;
833 [label="ST momentum <= 0.2\ngini = 0.2\nsamples = 36\nvalue = [52, 6]"] ;
801 -> 833 ;
834 [label="Margin vs peak <= -0.0\ngini = 0.0\nsamples = 30\nvalue = [44, 1]"] ;
833 -> 834 ;
835 [label="gini = 0.0\nsamples = 24\nvalue = [38, 0]"] ;
834 -> 835 ;
836 [label="xEbit vs peak <= -0.3\ngini = 0.2\nsamples = 6\nvalue = [6, 1]"] ;
834 -> 836 ;
837 [label="gini = 0.0\nsamples = 3\nvalue = [4, 0]"] ;
836 -> 837 ;
838 [label="xSales <= 1.7\ngini = 0.4\nsamples = 3\nvalue = [2, 1]"] ;
836 -> 838 ;
839 [label="gini = 0.0\nsamples = 1\nvalue = [0, 1]"] ;
838 -> 839 ;
840 [label="gini = 0.0\nsamples = 2\nvalue = [2, 0]"] ;
838 -> 840 ;
841 [label="ND/market cap <= 0.2\ngini = 0.5\nsamples = 6\nvalue = [8, 5]"] ;
833 -> 841 ;
842 [label="gini = 0.0\nsamples = 3\nvalue = [8, 0]"] ;
841 -> 842 ;
843 [label="gini = 0.0\nsamples = 3\nvalue = [0, 5]"] ;
841 -> 843 ;
844 [label="xEbit <= 11.2\ngini = 0.3\nsamples = 80\nvalue = [102, 19]"] ;
790 -> 844 ;
845 [label="gini = 0.0\nsamples = 2\nvalue = [0, 3]"] ;
844 -> 845 ;
846 [label="xSales vs peak <= -0.0\ngini = 0.2\nsamples = 78\nvalue = [102, 16]"] ;
844 -> 846 ;
847 [label="Index st momentum <= 0.1\ngini = 0.1\nsamples = 38\nvalue = [56, 3]"] ;
846 -> 847 ;
848 [label="ND/market cap <= 0.2\ngini = 0.1\nsamples = 37\nvalue = [56, 2]"] ;
847 -> 848 ;
849 [label="xSales <= 4.4\ngini = 0.0\nsamples = 35\nvalue = [55, 1]"] ;
848 -> 849 ;
850 [label="gini = 0.0\nsamples = 28\nvalue = [44, 0]"] ;
849 -> 850 ;
851 [label="xSales vs peak <= -0.1\ngini = 0.2\nsamples = 7\nvalue = [11, 1]"] ;
849 -> 851 ;
852 [label="gini = 0.0\nsamples = 1\nvalue = [0, 1]"] ;
851 -> 852 ;
853 [label="gini = 0.0\nsamples = 6\nvalue = [11, 0]"] ;
851 -> 853 ;
854 [label="xSales <= 1.7\ngini = 0.5\nsamples = 2\nvalue = [1, 1]"] ;
848 -> 854 ;
855 [label="gini = 0.0\nsamples = 1\nvalue = [1, 0]"] ;
854 -> 855 ;
856 [label="gini = 0.0\nsamples = 1\nvalue = [0, 1]"] ;
854 -> 856 ;
857 [label="gini = 0.0\nsamples = 1\nvalue = [0, 1]"] ;
847 -> 857 ;
858 [label="xSales <= 0.9\ngini = 0.3\nsamples = 40\nvalue = [46, 13]"] ;
846 -> 858 ;
859 [label="outperf vs index 3m <= -0.0\ngini = 0.5\nsamples = 4\nvalue = [2, 3]"] ;
858 -> 859 ;
860 [label="gini = 0.0\nsamples = 2\nvalue = [0, 3]"] ;
859 -> 860 ;
861 [label="gini = 0.0\nsamples = 2\nvalue = [2, 0]"] ;
859 -> 861 ;
862 [label="PE <= 30.3\ngini = 0.3\nsamples = 36\nvalue = [44, 10]"] ;
858 -> 862 ;
863 [label="net income vs peak <= -0.3\ngini = 0.4\nsamples = 22\nvalue = [22, 10]"] ;
862 -> 863 ;
864 [label="xSales <= 3.9\ngini = 0.5\nsamples = 8\nvalue = [4, 6]"] ;
863 -> 864 ;
865 [label="xSales vs peak <= -0.0\ngini = 0.4\nsamples = 5\nvalue = [4, 2]"] ;
864 -> 865 ;
866 [label="gini = 0.0\nsamples = 3\nvalue = [3, 0]"] ;
865 -> 866 ;
867 [label="outperf vs index 3m <= -0.0\ngini = 0.4\nsamples = 2\nvalue = [1, 2]"] ;
865 -> 867 ;
868 [label="gini = 0.0\nsamples = 1\nvalue = [1, 0]"] ;
867 -> 868 ;
869 [label="gini = 0.0\nsamples = 1\nvalue = [0, 2]"] ;
867 -> 869 ;
870 [label="gini = 0.0\nsamples = 3\nvalue = [0, 4]"] ;
864 -> 870 ;
871 [label="outperf vs index 1m <= 0.0\ngini = 0.3\nsamples = 14\nvalue = [18, 4]"] ;
863 -> 871 ;
872 [label="PE <= 24.1\ngini = 0.5\nsamples = 5\nvalue = [3, 3]"] ;
871 -> 872 ;
873 [label="gini = 0.0\nsamples = 2\nvalue = [2, 0]"] ;
872 -> 873 ;
874 [label="ST momentum <= 0.0\ngini = 0.4\nsamples = 3\nvalue = [1, 3]"] ;
872 -> 874 ;
875 [label="gini = 0.0\nsamples = 1\nvalue = [0, 2]"] ;
874 -> 875 ;
876 [label="ebit vs peak <= -0.1\ngini = 0.5\nsamples = 2\nvalue = [1, 1]"] ;
874 -> 876 ;
877 [label="gini = 0.0\nsamples = 1\nvalue = [1, 0]"] ;
876 -> 877 ;
878 [label="gini = 0.0\nsamples = 1\nvalue = [0, 1]"] ;
876 -> 878 ;
879 [label="net income vs peak <= -0.1\ngini = 0.1\nsamples = 9\nvalue = [15, 1]"] ;
871 -> 879 ;
880 [label="gini = 0.0\nsamples = 7\nvalue = [13, 0]"] ;
879 -> 880 ;
881 [label="ND/market cap <= 0.1\ngini = 0.4\nsamples = 2\nvalue = [2, 1]"] ;
879 -> 881 ;
882 [label="gini = 0.0\nsamples = 1\nvalue = [2, 0]"] ;
881 -> 882 ;
883 [label="gini = 0.0\nsamples = 1\nvalue = [0, 1]"] ;
881 -> 883 ;
884 [label="gini = 0.0\nsamples = 14\nvalue = [22, 0]"] ;
862 -> 884 ;
885 [label="ST momentum <= 0.3\ngini = 0.2\nsamples = 5\nvalue = [1, 6]"] ;
781 -> 885 ;
886 [label="gini = 0.0\nsamples = 4\nvalue = [0, 6]"] ;
885 -> 886 ;
887 [label="gini = 0.0\nsamples = 1\nvalue = [1, 0]"] ;
885 -> 887 ;
888 [label="ND/market cap <= 0.1\ngini = 0.3\nsamples = 141\nvalue = [191, 34]"] ;
780 -> 888 ;
889 [label="outperf vs index 3m <= 0.0\ngini = 0.4\nsamples = 63\nvalue = [72, 23]"] ;
888 -> 889 ;
890 [label="ND/market cap <= 0.1\ngini = 0.5\nsamples = 46\nvalue = [42, 22]"] ;
889 -> 890 ;
891 [label="xSales vs peak <= -0.1\ngini = 0.4\nsamples = 45\nvalue = [42, 18]"] ;
890 -> 891 ;
892 [label="PE vs peak <= -0.1\ngini = 0.3\nsamples = 24\nvalue = [27, 5]"] ;
891 -> 892 ;
893 [label="market cap vs peak <= -0.1\ngini = 0.5\nsamples = 8\nvalue = [5, 5]"] ;
892 -> 893 ;
894 [label="outperf vs index 1m <= -0.0\ngini = 0.3\nsamples = 6\nvalue = [1, 5]"] ;
893 -> 894 ;
895 [label="gini = 0.0\nsamples = 1\nvalue = [1, 0]"] ;
894 -> 895 ;
896 [label="gini = 0.0\nsamples = 5\nvalue = [0, 5]"] ;
894 -> 896 ;
897 [label="gini = 0.0\nsamples = 2\nvalue = [4, 0]"] ;
893 -> 897 ;
898 [label="gini = 0.0\nsamples = 16\nvalue = [22, 0]"] ;
892 -> 898 ;
899 [label="xEbit <= 13.3\ngini = 0.5\nsamples = 21\nvalue = [15, 13]"] ;
891 -> 899 ;
900 [label="gini = 0.0\nsamples = 3\nvalue = [3, 0]"] ;
899 -> 900 ;
901 [label="xEbit <= 14.6\ngini = 0.5\nsamples = 18\nvalue = [12, 13]"] ;
899 -> 901 ;
902 [label="gini = 0.0\nsamples = 3\nvalue = [0, 6]"] ;
901 -> 902 ;
903 [label="xSales <= 2.0\ngini = 0.5\nsamples = 15\nvalue = [12, 7]"] ;
901 -> 903 ;
904 [label="gini = 0.0\nsamples = 4\nvalue = [6, 0]"] ;
903 -> 904 ;
905 [label="PE vs peak <= -0.0\ngini = 0.5\nsamples = 11\nvalue = [6, 7]"] ;
903 -> 905 ;
906 [label="PE <= 29.0\ngini = 0.2\nsamples = 6\nvalue = [1, 6]"] ;
905 -> 906 ;
907 [label="gini = 0.0\nsamples = 5\nvalue = [0, 6]"] ;
906 -> 907 ;
908 [label="gini = 0.0\nsamples = 1\nvalue = [1, 0]"] ;
906 -> 908 ;
909 [label="PE <= 26.9\ngini = 0.3\nsamples = 5\nvalue = [5, 1]"] ;
905 -> 909 ;
910 [label="gini = 0.0\nsamples = 3\nvalue = [3, 0]"] ;
909 -> 910 ;
911 [label="ND/market cap <= 0.0\ngini = 0.4\nsamples = 2\nvalue = [2, 1]"] ;
909 -> 911 ;
912 [label="gini = 0.0\nsamples = 1\nvalue = [2, 0]"] ;
911 -> 912 ;
913 [label="gini = 0.0\nsamples = 1\nvalue = [0, 1]"] ;
911 -> 913 ;
914 [label="gini = 0.0\nsamples = 1\nvalue = [0, 4]"] ;
890 -> 914 ;
915 [label="xEbit vs peak <= -0.3\ngini = 0.1\nsamples = 17\nvalue = [30, 1]"] ;
889 -> 915 ;
916 [label="xEbit vs peak <= -0.5\ngini = 0.4\nsamples = 2\nvalue = [3, 1]"] ;
915 -> 916 ;
917 [label="gini = 0.0\nsamples = 1\nvalue = [3, 0]"] ;
916 -> 917 ;
918 [label="gini = 0.0\nsamples = 1\nvalue = [0, 1]"] ;
916 -> 918 ;
919 [label="gini = 0.0\nsamples = 15\nvalue = [27, 0]"] ;
915 -> 919 ;
920 [label="PE vs peak <= -0.2\ngini = 0.2\nsamples = 78\nvalue = [119, 11]"] ;
888 -> 920 ;
921 [label="ND/market cap <= 0.7\ngini = 0.1\nsamples = 43\nvalue = [70, 2]"] ;
920 -> 921 ;
922 [label="gini = 0.0\nsamples = 27\nvalue = [48, 0]"] ;
921 -> 922 ;
923 [label="xEbit vs peak <= -0.3\ngini = 0.2\nsamples = 16\nvalue = [22, 2]"] ;
921 -> 923 ;
924 [label="gini = 0.0\nsamples = 10\nvalue = [14, 0]"] ;
923 -> 924 ;
925 [label="outperf vs index 3m <= -0.0\ngini = 0.3\nsamples = 6\nvalue = [8, 2]"] ;
923 -> 925 ;
926 [label="gini = 0.0\nsamples = 2\nvalue = [0, 2]"] ;
925 -> 926 ;
927 [label="gini = 0.0\nsamples = 4\nvalue = [8, 0]"] ;
925 -> 927 ;
928 [label="ND/market cap <= 0.4\ngini = 0.3\nsamples = 35\nvalue = [49, 9]"] ;
920 -> 928 ;
929 [label="xEbit <= 18.8\ngini = 0.2\nsamples = 33\nvalue = [49, 5]"] ;
928 -> 929 ;
930 [label="LT momentum <= 0.1\ngini = 0.1\nsamples = 30\nvalue = [47, 2]"] ;
929 -> 930 ;
931 [label="gini = 0.0\nsamples = 1\nvalue = [0, 1]"] ;
930 -> 931 ;
932 [label="xEbit vs peak <= -0.0\ngini = 0.0\nsamples = 29\nvalue = [47, 1]"] ;
930 -> 932 ;
933 [label="gini = 0.0\nsamples = 22\nvalue = [30, 0]"] ;
932 -> 933 ;
934 [label="LT momentum <= 0.3\ngini = 0.1\nsamples = 7\nvalue = [17, 1]"] ;
932 -> 934 ;
935 [label="gini = 0.0\nsamples = 5\nvalue = [12, 0]"] ;
934 -> 935 ;
936 [label="ND/market cap <= 0.2\ngini = 0.3\nsamples = 2\nvalue = [5, 1]"] ;
934 -> 936 ;
937 [label="gini = 0.0\nsamples = 1\nvalue = [5, 0]"] ;
936 -> 937 ;
938 [label="gini = 0.0\nsamples = 1\nvalue = [0, 1]"] ;
936 -> 938 ;
939 [label="PE <= 22.7\ngini = 0.5\nsamples = 3\nvalue = [2, 3]"] ;
929 -> 939 ;
940 [label="gini = 0.0\nsamples = 1\nvalue = [0, 3]"] ;
939 -> 940 ;
941 [label="gini = 0.0\nsamples = 2\nvalue = [2, 0]"] ;
939 -> 941 ;
942 [label="gini = 0.0\nsamples = 2\nvalue = [0, 4]"] ;
928 -> 942 ;
943 [label="xEbit <= 19.4\ngini = 0.4\nsamples = 7\nvalue = [3, 6]"] ;
779 -> 943 ;
944 [label="gini = 0.0\nsamples = 3\nvalue = [3, 0]"] ;
943 -> 944 ;
945 [label="gini = 0.0\nsamples = 4\nvalue = [0, 6]"] ;
943 -> 945 ;
946 [label="Margin vs peak <= -0.1\ngini = 0.5\nsamples = 320\nvalue = [320, 183]"] ;
734 -> 946 ;
947 [label="Margin vs peak <= -0.1\ngini = 0.4\nsamples = 201\nvalue = [229, 107]"] ;
946 -> 947 ;
948 [label="LT momentum <= -0.4\ngini = 0.5\nsamples = 184\nvalue = [199, 106]"] ;
947 -> 948 ;
949 [label="outperf vs index 3m <= 0.1\ngini = 0.2\nsamples = 3\nvalue = [1, 7]"] ;
948 -> 949 ;
950 [label="gini = 0.0\nsamples = 2\nvalue = [0, 7]"] ;
949 -> 950 ;
951 [label="gini = 0.0\nsamples = 1\nvalue = [1, 0]"] ;
949 -> 951 ;
952 [label="outperf vs index 3m <= 0.0\ngini = 0.4\nsamples = 181\nvalue = [198, 99]"] ;
948 -> 952 ;
953 [label="Margin vs peak <= -0.5\ngini = 0.2\nsamples = 7\nvalue = [1, 9]"] ;
952 -> 953 ;
954 [label="xEbit vs peak <= -0.0\ngini = 0.4\nsamples = 2\nvalue = [1, 2]"] ;
953 -> 954 ;
955 [label="gini = 0.0\nsamples = 1\nvalue = [0, 2]"] ;
954 -> 955 ;
956 [label="gini = 0.0\nsamples = 1\nvalue = [1, 0]"] ;
954 -> 956 ;
957 [label="gini = 0.0\nsamples = 5\nvalue = [0, 7]"] ;
953 -> 957 ;
958 [label="xEbit vs peak <= -0.1\ngini = 0.4\nsamples = 174\nvalue = [197, 90]"] ;
952 -> 958 ;
959 [label="LT momentum <= 0.1\ngini = 0.5\nsamples = 71\nvalue = [62, 49]"] ;
958 -> 959 ;
960 [label="ST momentum <= -0.4\ngini = 0.4\nsamples = 33\nvalue = [37, 14]"] ;
959 -> 960 ;
961 [label="gini = 0.0\nsamples = 1\nvalue = [0, 2]"] ;
960 -> 961 ;
962 [label="PE <= 23.0\ngini = 0.4\nsamples = 32\nvalue = [37, 12]"] ;
960 -> 962 ;
963 [label="xEbit vs peak <= -0.5\ngini = 0.2\nsamples = 12\nvalue = [19, 2]"] ;
962 -> 963 ;
964 [label="ND/market cap <= 0.0\ngini = 0.5\nsamples = 2\nvalue = [1, 1]"] ;
963 -> 964 ;
965 [label="gini = 0.0\nsamples = 1\nvalue = [1, 0]"] ;
964 -> 965 ;
966 [label="gini = 0.0\nsamples = 1\nvalue = [0, 1]"] ;
964 -> 966 ;
967 [label="Margin vs peak <= -0.2\ngini = 0.1\nsamples = 10\nvalue = [18, 1]"] ;
963 -> 967 ;
968 [label="gini = 0.0\nsamples = 9\nvalue = [18, 0]"] ;
967 -> 968 ;
969 [label="gini = 0.0\nsamples = 1\nvalue = [0, 1]"] ;
967 -> 969 ;
970 [label="PE vs peak <= -0.3\ngini = 0.5\nsamples = 20\nvalue = [18, 10]"] ;
962 -> 970 ;
971 [label="PE vs peak <= -0.9\ngini = 0.5\nsamples = 9\nvalue = [5, 9]"] ;
970 -> 971 ;
972 [label="gini = 0.0\nsamples = 2\nvalue = [3, 0]"] ;
971 -> 972 ;
973 [label="xSales vs peak <= -0.0\ngini = 0.3\nsamples = 7\nvalue = [2, 9]"] ;
971 -> 973 ;
974 [label="gini = 0.0\nsamples = 5\nvalue = [0, 9]"] ;
973 -> 974 ;
975 [label="gini = 0.0\nsamples = 2\nvalue = [2, 0]"] ;
973 -> 975 ;
976 [label="outperf vs index 1m <= 0.1\ngini = 0.1\nsamples = 11\nvalue = [13, 1]"] ;
970 -> 976 ;
977 [label="gini = 0.0\nsamples = 10\nvalue = [13, 0]"] ;
976 -> 977 ;
978 [label="gini = 0.0\nsamples = 1\nvalue = [0, 1]"] ;
976 -> 978 ;
979 [label="outperf vs index 3m <= 0.1\ngini = 0.5\nsamples = 38\nvalue = [25, 35]"] ;
959 -> 979 ;
980 [label="LT momentum <= 0.4\ngini = 0.3\nsamples = 10\nvalue = [3, 15]"] ;
979 -> 980 ;
981 [label="gini = 0.0\nsamples = 8\nvalue = [0, 15]"] ;
980 -> 981 ;
982 [label="gini = 0.0\nsamples = 2\nvalue = [3, 0]"] ;
980 -> 982 ;
983 [label="Index st momentum <= 0.0\ngini = 0.5\nsamples = 28\nvalue = [22, 20]"] ;
979 -> 983 ;
984 [label="outperf vs index 1m <= 0.1\ngini = 0.3\nsamples = 15\nvalue = [5, 18]"] ;
983 -> 984 ;
985 [label="xSales vs peak <= -0.0\ngini = 0.1\nsamples = 9\nvalue = [1, 14]"] ;
984 -> 985 ;
986 [label="gini = 0.0\nsamples = 7\nvalue = [0, 13]"] ;
985 -> 986 ;
987 [label="net income vs peak <= -0.1\ngini = 0.5\nsamples = 2\nvalue = [1, 1]"] ;
985 -> 987 ;
988 [label="gini = 0.0\nsamples = 1\nvalue = [0, 1]"] ;
987 -> 988 ;
989 [label="gini = 0.0\nsamples = 1\nvalue = [1, 0]"] ;
987 -> 989 ;
990 [label="outperf vs index 1m <= 0.1\ngini = 0.5\nsamples = 6\nvalue = [4, 4]"] ;
984 -> 990 ;
991 [label="gini = 0.0\nsamples = 3\nvalue = [4, 0]"] ;
990 -> 991 ;
992 [label="gini = 0.0\nsamples = 3\nvalue = [0, 4]"] ;
990 -> 992 ;
993 [label="xSales <= 5.0\ngini = 0.2\nsamples = 13\nvalue = [17, 2]"] ;
983 -> 993 ;
994 [label="gini = 0.0\nsamples = 10\nvalue = [16, 0]"] ;
993 -> 994 ;
995 [label="xSales <= 5.4\ngini = 0.4\nsamples = 3\nvalue = [1, 2]"] ;
993 -> 995 ;
996 [label="gini = 0.0\nsamples = 1\nvalue = [0, 1]"] ;
995 -> 996 ;
997 [label="xEbit vs peak <= -0.2\ngini = 0.5\nsamples = 2\nvalue = [1, 1]"] ;
995 -> 997 ;
998 [label="gini = 0.0\nsamples = 1\nvalue = [1, 0]"] ;
997 -> 998 ;
999 [label="gini = 0.0\nsamples = 1\nvalue = [0, 1]"] ;
997 -> 999 ;
1000 [label="outperf vs index 3m <= 0.3\ngini = 0.4\nsamples = 103\nvalue = [135, 41]"] ;
958 -> 1000 ;
1001 [label="xSales vs peak <= -0.1\ngini = 0.3\nsamples = 102\nvalue = [135, 39]"] ;
1000 -> 1001 ;
1002 [label="gini = 0.0\nsamples = 11\nvalue = [20, 0]"] ;
1001 -> 1002 ;
1003 [label="ND/market cap <= 0.2\ngini = 0.4\nsamples = 91\nvalue = [115, 39]"] ;
1001 -> 1003 ;
1004 [label="PE vs peak <= -0.0\ngini = 0.3\nsamples = 47\nvalue = [68, 14]"] ;
1003 -> 1004 ;
1005 [label="ST momentum <= -0.0\ngini = 0.4\nsamples = 20\nvalue = [24, 10]"] ;
1004 -> 1005 ;
1006 [label="gini = 0.0\nsamples = 2\nvalue = [0, 4]"] ;
1005 -> 1006 ;
1007 [label="net income vs peak <= -0.0\ngini = 0.3\nsamples = 18\nvalue = [24, 6]"] ;
1005 -> 1007 ;
1008 [label="market cap vs peak <= -0.0\ngini = 0.4\nsamples = 13\nvalue = [13, 6]"] ;
1007 -> 1008 ;
1009 [label="outperf vs index 3m <= 0.1\ngini = 0.5\nsamples = 10\nvalue = [7, 6]"] ;
1008 -> 1009 ;
1010 [label="Index st momentum <= -0.1\ngini = 0.4\nsamples = 7\nvalue = [2, 6]"] ;
1009 -> 1010 ;
1011 [label="Index st momentum <= -0.1\ngini = 0.4\nsamples = 3\nvalue = [2, 1]"] ;
1010 -> 1011 ;
1012 [label="gini = 0.0\nsamples = 1\nvalue = [0, 1]"] ;
1011 -> 1012 ;
1013 [label="gini = 0.0\nsamples = 2\nvalue = [2, 0]"] ;
1011 -> 1013 ;
1014 [label="gini = 0.0\nsamples = 4\nvalue = [0, 5]"] ;
1010 -> 1014 ;
1015 [label="gini = 0.0\nsamples = 3\nvalue = [5, 0]"] ;
1009 -> 1015 ;
1016 [label="gini = 0.0\nsamples = 3\nvalue = [6, 0]"] ;
1008 -> 1016 ;
1017 [label="gini = 0.0\nsamples = 5\nvalue = [11, 0]"] ;
1007 -> 1017 ;
1018 [label="Index st momentum <= -0.0\ngini = 0.2\nsamples = 27\nvalue = [44, 4]"] ;
1004 -> 1018 ;
1019 [label="ND/market cap <= -0.1\ngini = 0.0\nsamples = 23\nvalue = [41, 1]"] ;
1018 -> 1019 ;
1020 [label="ND/market cap <= -0.1\ngini = 0.3\nsamples = 4\nvalue = [4, 1]"] ;
1019 -> 1020 ;
1021 [label="gini = 0.0\nsamples = 3\nvalue = [4, 0]"] ;
1020 -> 1021 ;
1022 [label="gini = 0.0\nsamples = 1\nvalue = [0, 1]"] ;
1020 -> 1022 ;
1023 [label="gini = 0.0\nsamples = 19\nvalue = [37, 0]"] ;
1019 -> 1023 ;
1024 [label="outperf vs index 1m <= -0.0\ngini = 0.5\nsamples = 4\nvalue = [3, 3]"] ;
1018 -> 1024 ;
1025 [label="Index vs max <= -0.2\ngini = 0.4\nsamples = 2\nvalue = [1, 3]"] ;
1024 -> 1025 ;
1026 [label="gini = 0.0\nsamples = 1\nvalue = [1, 0]"] ;
1025 -> 1026 ;
1027 [label="gini = 0.0\nsamples = 1\nvalue = [0, 3]"] ;
1025 -> 1027 ;
1028 [label="gini = 0.0\nsamples = 2\nvalue = [2, 0]"] ;
1024 -> 1028 ;
1029 [label="LT momentum <= -0.4\ngini = 0.5\nsamples = 44\nvalue = [47, 25]"] ;
1003 -> 1029 ;
1030 [label="ND/market cap <= 0.9\ngini = 0.1\nsamples = 7\nvalue = [15, 1]"] ;
1029 -> 1030 ;
1031 [label="gini = 0.0\nsamples = 6\nvalue = [15, 0]"] ;
1030 -> 1031 ;
1032 [label="gini = 0.0\nsamples = 1\nvalue = [0, 1]"] ;
1030 -> 1032 ;
1033 [label="xSales vs peak <= -0.0\ngini = 0.5\nsamples = 37\nvalue = [32, 24]"] ;
1029 -> 1033 ;
1034 [label="net income vs peak <= -0.3\ngini = 0.4\nsamples = 15\nvalue = [19, 6]"] ;
1033 -> 1034 ;
1035 [label="gini = 0.0\nsamples = 8\nvalue = [12, 0]"] ;
1034 -> 1035 ;
1036 [label="ebit vs peak <= -0.1\ngini = 0.5\nsamples = 7\nvalue = [7, 6]"] ;
1034 -> 1036 ;
1037 [label="outperf vs index 3m <= 0.1\ngini = 0.2\nsamples = 4\nvalue = [1, 6]"] ;
1036 -> 1037 ;
1038 [label="gini = 0.0\nsamples = 3\nvalue = [0, 6]"] ;
1037 -> 1038 ;
1039 [label="gini = 0.0\nsamples = 1\nvalue = [1, 0]"] ;
1037 -> 1039 ;
1040 [label="gini = 0.0\nsamples = 3\nvalue = [6, 0]"] ;
1036 -> 1040 ;
1041 [label="ebit vs peak <= -0.3\ngini = 0.5\nsamples = 22\nvalue = [13, 18]"] ;
1033 -> 1041 ;
1042 [label="xSales <= 7.8\ngini = 0.5\nsamples = 15\nvalue = [12, 10]"] ;
1041 -> 1042 ;
1043 [label="ND/market cap <= 4.3\ngini = 0.5\nsamples = 12\nvalue = [8, 10]"] ;
1042 -> 1043 ;
1044 [label="xSales <= 0.9\ngini = 0.5\nsamples = 9\nvalue = [8, 5]"] ;
1043 -> 1044 ;
1045 [label="gini = 0.0\nsamples = 1\nvalue = [0, 1]"] ;
1044 -> 1045 ;
1046 [label="outperf vs index 1m <= -0.0\ngini = 0.4\nsamples = 8\nvalue = [8, 4]"] ;
1044 -> 1046 ;
1047 [label="gini = 0.0\nsamples = 2\nvalue = [0, 2]"] ;
1046 -> 1047 ;
1048 [label="Index st momentum <= -0.1\ngini = 0.3\nsamples = 6\nvalue = [8, 2]"] ;
1046 -> 1048 ;
1049 [label="gini = 0.0\nsamples = 4\nvalue = [6, 0]"] ;
1048 -> 1049 ;
1050 [label="LT momentum <= -0.3\ngini = 0.5\nsamples = 2\nvalue = [2, 2]"] ;
1048 -> 1050 ;
1051 [label="gini = 0.0\nsamples = 1\nvalue = [2, 0]"] ;
1050 -> 1051 ;
1052 [label="gini = 0.0\nsamples = 1\nvalue = [0, 2]"] ;
1050 -> 1052 ;
1053 [label="gini = 0.0\nsamples = 3\nvalue = [0, 5]"] ;
1043 -> 1053 ;
1054 [label="gini = 0.0\nsamples = 3\nvalue = [4, 0]"] ;
1042 -> 1054 ;
1055 [label="outperf vs index 3m <= 0.2\ngini = 0.2\nsamples = 7\nvalue = [1, 8]"] ;
1041 -> 1055 ;
1056 [label="gini = 0.0\nsamples = 5\nvalue = [0, 7]"] ;
1055 -> 1056 ;
1057 [label="Index st momentum <= -0.0\ngini = 0.5\nsamples = 2\nvalue = [1, 1]"] ;
1055 -> 1057 ;
1058 [label="gini = 0.0\nsamples = 1\nvalue = [0, 1]"] ;
1057 -> 1058 ;
1059 [label="gini = 0.0\nsamples = 1\nvalue = [1, 0]"] ;
1057 -> 1059 ;
1060 [label="gini = 0.0\nsamples = 1\nvalue = [0, 2]"] ;
1000 -> 1060 ;
1061 [label="ND/market cap <= -0.0\ngini = 0.1\nsamples = 17\nvalue = [30, 1]"] ;
947 -> 1061 ;
1062 [label="Index st momentum <= 0.0\ngini = 0.4\nsamples = 2\nvalue = [2, 1]"] ;
1061 -> 1062 ;
1063 [label="gini = 0.0\nsamples = 1\nvalue = [2, 0]"] ;
1062 -> 1063 ;
1064 [label="gini = 0.0\nsamples = 1\nvalue = [0, 1]"] ;
1062 -> 1064 ;
1065 [label="gini = 0.0\nsamples = 15\nvalue = [28, 0]"] ;
1061 -> 1065 ;
1066 [label="xEbit <= 24.7\ngini = 0.5\nsamples = 119\nvalue = [91, 76]"] ;
946 -> 1066 ;
1067 [label="PE <= 20.1\ngini = 0.5\nsamples = 113\nvalue = [90, 68]"] ;
1066 -> 1067 ;
1068 [label="xEbit vs peak <= -0.3\ngini = 0.5\nsamples = 27\nvalue = [12, 21]"] ;
1067 -> 1068 ;
1069 [label="gini = 0.0\nsamples = 4\nvalue = [0, 5]"] ;
1068 -> 1069 ;
1070 [label="outperf vs index 1m <= 0.0\ngini = 0.5\nsamples = 23\nvalue = [12, 16]"] ;
1068 -> 1070 ;
1071 [label="outperf vs index 3m <= 0.1\ngini = 0.2\nsamples = 6\nvalue = [6, 1]"] ;
1070 -> 1071 ;
1072 [label="gini = 0.0\nsamples = 3\nvalue = [3, 0]"] ;
1071 -> 1072 ;
1073 [label="xSales vs peak <= -0.1\ngini = 0.4\nsamples = 3\nvalue = [3, 1]"] ;
1071 -> 1073 ;
1074 [label="gini = 0.0\nsamples = 1\nvalue = [0, 1]"] ;
1073 -> 1074 ;
1075 [label="gini = 0.0\nsamples = 2\nvalue = [3, 0]"] ;
1073 -> 1075 ;
1076 [label="Index st momentum <= -0.1\ngini = 0.4\nsamples = 17\nvalue = [6, 15]"] ;
1070 -> 1076 ;
1077 [label="gini = 0.0\nsamples = 2\nvalue = [2, 0]"] ;
1076 -> 1077 ;
1078 [label="Index vs max <= -0.4\ngini = 0.3\nsamples = 15\nvalue = [4, 15]"] ;
1076 -> 1078 ;
1079 [label="gini = 0.0\nsamples = 2\nvalue = [2, 0]"] ;
1078 -> 1079 ;
1080 [label="LT momentum <= -0.2\ngini = 0.2\nsamples = 13\nvalue = [2, 15]"] ;
1078 -> 1080 ;
1081 [label="gini = 0.0\nsamples = 1\nvalue = [1, 0]"] ;
1080 -> 1081 ;
1082 [label="market cap vs peak <= -0.1\ngini = 0.1\nsamples = 12\nvalue = [1, 15]"] ;
1080 -> 1082 ;
1083 [label="gini = 0.0\nsamples = 1\nvalue = [1, 0]"] ;
1082 -> 1083 ;
1084 [label="gini = 0.0\nsamples = 11\nvalue = [0, 15]"] ;
1082 -> 1084 ;
1085 [label="market cap vs peak <= -0.1\ngini = 0.5\nsamples = 86\nvalue = [78, 47]"] ;
1067 -> 1085 ;
1086 [label="gini = 0.0\nsamples = 8\nvalue = [16, 0]"] ;
1085 -> 1086 ;
1087 [label="outperf vs index 1m <= -0.0\ngini = 0.5\nsamples = 78\nvalue = [62, 47]"] ;
1085 -> 1087 ;
1088 [label="Index vs max <= -0.4\ngini = 0.2\nsamples = 5\nvalue = [1, 6]"] ;
1087 -> 1088 ;
1089 [label="gini = 0.0\nsamples = 1\nvalue = [1, 0]"] ;
1088 -> 1089 ;
1090 [label="gini = 0.0\nsamples = 4\nvalue = [0, 6]"] ;
1088 -> 1090 ;
1091 [label="xSales vs peak <= -0.0\ngini = 0.5\nsamples = 73\nvalue = [61, 41]"] ;
1087 -> 1091 ;
1092 [label="PE <= 30.3\ngini = 0.5\nsamples = 31\nvalue = [19, 23]"] ;
1091 -> 1092 ;
1093 [label="outperf vs index 1m <= 0.1\ngini = 0.5\nsamples = 28\nvalue = [14, 23]"] ;
1092 -> 1093 ;
1094 [label="xEbit <= 12.7\ngini = 0.5\nsamples = 17\nvalue = [11, 9]"] ;
1093 -> 1094 ;
1095 [label="gini = 0.0\nsamples = 3\nvalue = [5, 0]"] ;
1094 -> 1095 ;
1096 [label="xSales <= 1.2\ngini = 0.5\nsamples = 14\nvalue = [6, 9]"] ;
1094 -> 1096 ;
1097 [label="gini = 0.0\nsamples = 2\nvalue = [2, 0]"] ;
1096 -> 1097 ;
1098 [label="xSales <= 5.8\ngini = 0.4\nsamples = 12\nvalue = [4, 9]"] ;
1096 -> 1098 ;
1099 [label="ND/market cap <= 0.1\ngini = 0.4\nsamples = 11\nvalue = [3, 9]"] ;
1098 -> 1099 ;
1100 [label="gini = 0.0\nsamples = 6\nvalue = [0, 7]"] ;
1099 -> 1100 ;
1101 [label="Index st momentum <= -0.1\ngini = 0.5\nsamples = 5\nvalue = [3, 2]"] ;
1099 -> 1101 ;
1102 [label="ND/market cap <= 0.2\ngini = 0.4\nsamples = 3\nvalue = [1, 2]"] ;
1101 -> 1102 ;
1103 [label="gini = 0.0\nsamples = 1\nvalue = [1, 0]"] ;
1102 -> 1103 ;
1104 [label="gini = 0.0\nsamples = 2\nvalue = [0, 2]"] ;
1102 -> 1104 ;
1105 [label="gini = 0.0\nsamples = 2\nvalue = [2, 0]"] ;
1101 -> 1105 ;
1106 [label="gini = 0.0\nsamples = 1\nvalue = [1, 0]"] ;
1098 -> 1106 ;
1107 [label="xEbit vs peak <= -0.9\ngini = 0.3\nsamples = 11\nvalue = [3, 14]"] ;
1093 -> 1107 ;
1108 [label="gini = 0.0\nsamples = 1\nvalue = [2, 0]"] ;
1107 -> 1108 ;
1109 [label="xEbit vs peak <= -0.0\ngini = 0.1\nsamples = 10\nvalue = [1, 14]"] ;
1107 -> 1109 ;
1110 [label="gini = 0.0\nsamples = 8\nvalue = [0, 12]"] ;
1109 -> 1110 ;
1111 [label="xSales <= 2.9\ngini = 0.4\nsamples = 2\nvalue = [1, 2]"] ;
1109 -> 1111 ;
1112 [label="gini = 0.0\nsamples = 1\nvalue = [1, 0]"] ;
1111 -> 1112 ;
1113 [label="gini = 0.0\nsamples = 1\nvalue = [0, 2]"] ;
1111 -> 1113 ;
1114 [label="gini = 0.0\nsamples = 3\nvalue = [5, 0]"] ;
1092 -> 1114 ;
1115 [label="PE vs peak <= -0.1\ngini = 0.4\nsamples = 42\nvalue = [42, 18]"] ;
1091 -> 1115 ;
1116 [label="xEbit vs peak <= -0.3\ngini = 0.5\nsamples = 18\nvalue = [13, 12]"] ;
1115 -> 1116 ;
1117 [label="gini = 0.0\nsamples = 2\nvalue = [0, 4]"] ;
1116 -> 1117 ;
1118 [label="xEbit vs peak <= -0.0\ngini = 0.5\nsamples = 16\nvalue = [13, 8]"] ;
1116 -> 1118 ;
1119 [label="outperf vs index 1m <= 0.1\ngini = 0.4\nsamples = 12\nvalue = [13, 4]"] ;
1118 -> 1119 ;
1120 [label="outperf vs index 1m <= 0.0\ngini = 0.2\nsamples = 11\nvalue = [13, 2]"] ;
1119 -> 1120 ;
1121 [label="xEbit vs peak <= -0.2\ngini = 0.4\nsamples = 5\nvalue = [4, 2]"] ;
1120 -> 1121 ;
1122 [label="gini = 0.0\nsamples = 2\nvalue = [0, 2]"] ;
1121 -> 1122 ;
1123 [label="gini = 0.0\nsamples = 3\nvalue = [4, 0]"] ;
1121 -> 1123 ;
1124 [label="gini = 0.0\nsamples = 6\nvalue = [9, 0]"] ;
1120 -> 1124 ;
1125 [label="gini = 0.0\nsamples = 1\nvalue = [0, 2]"] ;
1119 -> 1125 ;
1126 [label="gini = 0.0\nsamples = 4\nvalue = [0, 4]"] ;
1118 -> 1126 ;
1127 [label="outperf vs index 3m <= 0.1\ngini = 0.3\nsamples = 24\nvalue = [29, 6]"] ;
1115 -> 1127 ;
1128 [label="gini = 0.0\nsamples = 2\nvalue = [0, 2]"] ;
1127 -> 1128 ;
1129 [label="ND/market cap <= -0.1\ngini = 0.2\nsamples = 22\nvalue = [29, 4]"] ;
1127 -> 1129 ;
1130 [label="gini = 0.0\nsamples = 2\nvalue = [0, 2]"] ;
1129 -> 1130 ;
1131 [label="ND/market cap <= 0.1\ngini = 0.1\nsamples = 20\nvalue = [29, 2]"] ;
1129 -> 1131 ;
1132 [label="gini = 0.0\nsamples = 14\nvalue = [24, 0]"] ;
1131 -> 1132 ;
1133 [label="ND/market cap <= 0.1\ngini = 0.4\nsamples = 6\nvalue = [5, 2]"] ;
1131 -> 1133 ;
1134 [label="gini = 0.0\nsamples = 1\nvalue = [0, 1]"] ;
1133 -> 1134 ;
1135 [label="PE <= 21.7\ngini = 0.3\nsamples = 5\nvalue = [5, 1]"] ;
1133 -> 1135 ;
1136 [label="LT momentum <= 0.3\ngini = 0.5\nsamples = 2\nvalue = [1, 1]"] ;
1135 -> 1136 ;
1137 [label="gini = 0.0\nsamples = 1\nvalue = [1, 0]"] ;
1136 -> 1137 ;
1138 [label="gini = 0.0\nsamples = 1\nvalue = [0, 1]"] ;
1136 -> 1138 ;
1139 [label="gini = 0.0\nsamples = 3\nvalue = [4, 0]"] ;
1135 -> 1139 ;
1140 [label="xSales vs peak <= -0.2\ngini = 0.2\nsamples = 6\nvalue = [1, 8]"] ;
1066 -> 1140 ;
1141 [label="gini = 0.0\nsamples = 1\nvalue = [1, 0]"] ;
1140 -> 1141 ;
1142 [label="gini = 0.0\nsamples = 5\nvalue = [0, 8]"] ;
1140 -> 1142 ;
}